{"learner":{"attributes":{"scikit_learn":"{\"_estimator_type\": \"classifier\"}"},"feature_names":["patient_age","duration_hours","claim_cost","payer_coverage","prior_encounter_count","days_since_prev","encounter_class_emergency","encounter_class_inpatient","encounter_class_outpatient","encounter_class_urgentcare","encounter_class_wellness","payer_name_Anthem","payer_name_Blue Cross Blue Shield","payer_name_Cigna Health","payer_name_Dual Eligible","payer_name_Humana","payer_name_Medicaid","payer_name_Medicare","payer_name_NO_INSURANCE","payer_name_UnitedHealthcare","gender_M","race_black","race_hawaiian","race_native","race_other","race_white"],"feature_types":["int","float","float","float","int","float","i","i","i","i","i","i","i","i","i","i","i","i","i","i","i","i","i","i","i","i"],"gradient_booster":{"model":{"cats":{"enc":[],"feature_segments":[],"sorted_idx":[]},"gbtree_model_param":{"num_parallel_tree":"1","num_trees":"200"},"iteration_indptr":[0,1,2,3,4,5,6,7,8,9,10,11,12,13,14,15,16,17,18,19,20,21,22,23,24,25,26,27,28,29,30,31,32,33,34,35,36,37,38,39,40,41,42,43,44,45,46,47,48,49,50,51,52,53,54,55,56,57,58,59,60,61,62,63,64,65,66,67,68,69,70,71,72,73,74,75,76,77,78,79,80,81,82,83,84,85,86,87,88,89,90,91,92,93,94,95,96,97,98,99,100,101,102,103,104,105,106,107,108,109,110,111,112,113,114,115,116,117,118,119,120,121,122,123,124,125,126,127,128,129,130,131,132,133,134,135,136,137,138,139,140,141,142,143,144,145,146,147,148,149,150,151,152,153,154,155,156,157,158,159,160,161,162,163,164,165,166,167,168,169,170,171,172,173,174,175,176,177,178,179,180,181,182,183,184,185,186,187,188,189,190,191,192,193,194,195,196,197,198,199,200],"tree_info":[0,0,0,0,0,0,0,0,0,0,0,0,0,0,0,0,0,0,0,0,0,0,0,0,0,0,0,0,0,0,0,0,0,0,0,0,0,0,0,0,0,0,0,0,0,0,0,0,0,0,0,0,0,0,0,0,0,0,0,0,0,0,0,0,0,0,0,0,0,0,0,0,0,0,0,0,0,0,0,0,0,0,0,0,0,0,0,0,0,0,0,0,0,0,0,0,0,0,0,0,0,0,0,0,0,0,0,0,0,0,0,0,0,0,0,0,0,0,0,0,0,0,0,0,0,0,0,0,0,0,0,0,0,0,0,0,0,0,0,0,0,0,0,0,0,0,0,0,0,0,0,0,0,0,0,0,0,0,0,0,0,0,0,0,0,0,0,0,0,0,0,0,0,0,0,0,0,0,0,0,0,0,0,0,0,0,0,0,0,0,0,0,0,0,0,0,0,0,0,0],"trees":[{"base_weights":[-1.5985664E-8,6.7065483E-1,-1.2761365E0,4.3444205E-2,1.3144122E0,-1.12234E0,-2.1110961E0,2.8975263E-1,-5.800524E-1,1.4667361E0,7.18534E-1,-1.356753E0,-7.1933776E-1,-2.1465988E0,-9.006852E-1,-9.6870184E-1,4.157362E-1,3.9689285E-1,-1.0178043E0,-4.8996663E-1,1.4992917E0,9.2040145E-1,2.128236E-1,-1.5535055E0,-6.999592E-1,-3.485454E-1,-9.3300587E-1,-1.972019E0,-2.306091E-1,6.360103E-2,-1.2935103E0,-1.731408E-1,-4.8266463E-2,1.1934539E-1,9.237479E-3,-3.0570412E-2,6.428158E-2,-1.3811761E-1,-4.372431E-2,2.1450778E-3,-1.5737875E-1,1.5210325E-1,-3.2968204E-3,8.321453E-2,1.3949464E-1,-6.0369433E-3,8.663005E-2,-1.6014268E-1,8.5890464E-2,-5.7394146E-3,-1.6240309E-1,-4.4049006E-2,7.436993E-2,-7.037667E-2,-1.490424E-1,-2.0395397E-1,-1.0274456E-1,-1.6410317E-1,-6.0789254E-2],"categories":[],"categories_nodes":[],"categories_segments":[],"categories_sizes":[],"default_left":[0,0,0,0,0,0,0,0,0,0,0,0,0,0,0,0,0,0,0,0,0,0,0,0,0,0,0,0,0,0,0,0,0,0,0,0,0,0,0,0,0,0,0,0,0,0,0,0,0,0,0,0,0,0,0,0,0,0,0],"id":0,"left_children":[1,3,5,7,9,11,13,15,17,19,21,23,25,27,29,31,33,35,37,39,41,43,45,47,49,51,53,55,-1,-1,57,-1,-1,-1,-1,-1,-1,-1,-1,-1,-1,-1,-1,-1,-1,-1,-1,-1,-1,-1,-1,-1,-1,-1,-1,-1,-1,-1,-1],"loss_changes":[4.519508E3,1.3976248E3,2.3123804E2,2.6958798E2,1.5399463E2,1.4434985E2,1.0177734E1,1.9988773E2,2.1300388E2,8.733594E1,3.5506836E1,1.2445325E2,4.4664673E1,3.0559082E0,6.710556E0,4.172058E1,2.876949E2,2.6899588E1,7.187729E1,1.2783773E1,4.4605225E1,9.295059E0,1.809702E1,8.770117E1,1.3395659E2,2.1336432E1,4.4910004E1,6.659607E0,0E0,0E0,9.3182373E-1,0E0,0E0,0E0,0E0,0E0,0E0,0E0,0E0,0E0,0E0,0E0,0E0,0E0,0E0,0E0,0E0,0E0,0E0,0E0,0E0,0E0,0E0,0E0,0E0,0E0,0E0,0E0,0E0],"parents":[2147483647,0,0,1,1,2,2,3,3,4,4,5,5,6,6,7,7,8,8,9,9,10,10,11,11,12,12,13,13,14,14,15,15,16,16,17,17,18,18,19,19,20,20,21,21,22,22,23,23,24,24,25,25,26,26,27,27,30,30],"right_children":[2,4,6,8,10,12,14,16,18,20,22,24,26,28,30,32,34,36,38,40,42,44,46,48,50,52,54,56,-1,-1,58,-1,-1,-1,-1,-1,-1,-1,-1,-1,-1,-1,-1,-1,-1,-1,-1,-1,-1,-1,-1,-1,-1,-1,-1,-1,-1,-1,-1],"split_conditions":[3.7E1,5.4E1,1E0,1E0,1.5E1,1.6E1,4.3E1,1E0,8.556E1,5.1E1,1E0,1E0,7.7E1,3.65E2,5.5E1,5.9153E2,4E0,2.4E1,2.2E1,9.83333E-1,2.4E1,1.75E2,1E2,3.902803E4,2.8043E2,1E2,7.3916E2,3.29E2,-2.306091E-1,6.360103E-2,7.91E0,-1.731408E-1,-4.8266463E-2,1.1934539E-1,9.237479E-3,-3.0570412E-2,6.428158E-2,-1.3811761E-1,-4.372431E-2,2.1450778E-3,-1.5737875E-1,1.5210325E-1,-3.2968204E-3,8.321453E-2,1.3949464E-1,-6.0369433E-3,8.663005E-2,-1.6014268E-1,8.5890464E-2,-5.7394146E-3,-1.6240309E-1,-4.4049006E-2,7.436993E-2,-7.037667E-2,-1.490424E-1,-2.0395397E-1,-1.0274456E-1,-1.6410317E-1,-6.0789254E-2],"split_indices":[5,4,10,8,5,4,4,5,2,0,8,8,5,5,5,2,5,5,4,1,1,4,4,2,2,4,2,5,0,0,3,0,0,0,0,0,0,0,0,0,0,0,0,0,0,0,0,0,0,0,0,0,0,0,0,0,0,0,0],"split_type":[0,0,0,0,0,0,0,0,0,0,0,0,0,0,0,0,0,0,0,0,0,0,0,0,0,0,0,0,0,0,0,0,0,0,0,0,0,0,0,0,0,0,0,0,0,0,0,0,0,0,0,0,0,0,0,0,0,0,0],"sum_hessian":[5.2787417E3,3.4605662E3,1.8181754E3,1.7533503E3,1.7072158E3,1.537346E3,2.8082944E2,1.2572263E3,4.961241E2,1.3584857E3,3.4873004E2,9.704822E2,5.668638E2,2.7207568E2,8.753739E0,1.13798615E2,1.1434276E3,1.5354532E2,3.4257877E2,2.2002642E1,1.3364832E3,2.4865352E2,1.0007654E2,7.45724E2,2.2475818E2,2.0819705E2,3.5866672E2,1.3627443E2,1.3580125E2,1.6561129E0,7.0976267E0,4.329552E1,7.050309E1,3.3500797E2,8.084197E2,3.9746708E1,1.13798615E2,2.0985316E2,1.3272562E2,1.56147785E1,6.387864E0,1.3177927E3,1.8690416E1,2.1198245E2,3.667107E1,7.121285E1,2.8863682E1,7.3152875E2,1.4195253E1,1.3319879E2,9.155939E1,1.9258228E2,1.56147785E1,2.5575114E2,1.0291559E2,1.26101166E2,1.01732645E1,3.7854009E0,3.3122258E0],"tree_param":{"num_deleted":"0","num_feature":"26","num_nodes":"59","size_leaf_vector":"1"}},{"base_weights":[1.570173E-3,6.1632705E-1,-1.1192379E0,5.891694E-2,1.2487912E0,-9.8664457E-1,-1.8280637E0,2.8617138E-1,-5.0889635E-1,1.3858515E0,6.9480366E-1,-1.1875257E0,-6.373819E-1,-1.8569753E0,-8.141888E-1,-8.1041765E-1,3.9943168E-1,3.5448802E-1,-8.773815E-1,-6.5111035E-1,1.4118472E0,8.640532E-1,2.6398817E-1,-1.3544528E0,-6.210984E-1,-6.7917967E-1,1.0262856E0,-1.7107285E0,-1.9900279E-1,6.025034E-2,-1.1666253E0,-1.5048653E-1,-3.782329E-2,1.10421024E-1,9.78973E-3,-2.5380481E-2,5.8286436E-2,-1.2082583E-1,-3.8363427E-2,-1.0351638E-3,-1.699158E-1,1.4309731E-1,-1.7259004E-2,7.757691E-2,1.3075922E-1,-1.4639636E-2,6.527746E-2,-1.396429E-1,7.269897E-2,-5.1625823E-3,-1.4161232E-1,-5.0016273E-2,-1.2371732E-1,1.4772356E-1,-1.0590315E-1,-1.7664956E-1,-9.149355E-2,-4.047294E-2,-1.3731027E-1],"categories":[],"categories_nodes":[],"categories_segments":[],"categories_sizes":[],"default_left":[0,0,0,0,0,0,0,0,0,0,0,0,0,0,0,0,0,0,0,0,0,0,0,0,0,0,0,0,0,0,0,0,0,0,0,0,0,0,0,0,0,0,0,0,0,0,0,0,0,0,0,0,0,0,0,0,0,0,0],"id":1,"left_children":[1,3,5,7,9,11,13,15,17,19,21,23,25,27,29,31,33,35,37,39,41,43,45,47,49,51,53,55,-1,-1,57,-1,-1,-1,-1,-1,-1,-1,-1,-1,-1,-1,-1,-1,-1,-1,-1,-1,-1,-1,-1,-1,-1,-1,-1,-1,-1,-1,-1],"loss_changes":[3.6264666E3,1.1981835E3,1.7341235E2,2.3340771E2,1.1993286E2,1.095824E2,7.0651245E0,1.60746E2,1.648092E2,6.8454834E1,2.294429E1,9.345215E1,4.077925E1,2.116211E0,5.6426005E0,3.582084E1,2.4883122E2,2.1732899E1,5.8787018E1,1.1234852E1,3.841919E1,7.902649E0,1.46268635E1,6.824011E1,1.0353565E2,5.560797E1,1.522334E1,4.6980286E0,0E0,0E0,7.441578E-1,0E0,0E0,0E0,0E0,0E0,0E0,0E0,0E0,0E0,0E0,0E0,0E0,0E0,0E0,0E0,0E0,0E0,0E0,0E0,0E0,0E0,0E0,0E0,0E0,0E0,0E0,0E0,0E0],"parents":[2147483647,0,0,1,1,2,2,3,3,4,4,5,5,6,6,7,7,8,8,9,9,10,10,11,11,12,12,13,13,14,14,15,15,16,16,17,17,18,18,19,19,20,20,21,21,22,22,23,23,24,24,25,25,26,26,27,27,30,30],"right_children":[2,4,6,8,10,12,14,16,18,20,22,24,26,28,30,32,34,36,38,40,42,44,46,48,50,52,54,56,-1,-1,58,-1,-1,-1,-1,-1,-1,-1,-1,-1,-1,-1,-1,-1,-1,-1,-1,-1,-1,-1,-1,-1,-1,-1,-1,-1,-1,-1,-1],"split_conditions":[3.7E1,5.8E1,1E0,1E0,1.5E1,1.6E1,4.3E1,1E0,8.556E1,5.1E1,1E0,1E0,3.902803E4,3.65E2,5.5E1,3.2095E2,5E0,2.7E1,2.2E1,6.16666E-1,2.4E1,1.75E2,1E0,3.558528E4,2.8043E2,1.26008E3,5.1E1,3.29E2,-1.9900279E-1,6.025034E-2,1E0,-1.5048653E-1,-3.782329E-2,1.10421024E-1,9.78973E-3,-2.5380481E-2,5.8286436E-2,-1.2082583E-1,-3.8363427E-2,-1.0351638E-3,-1.699158E-1,1.4309731E-1,-1.7259004E-2,7.757691E-2,1.3075922E-1,-1.4639636E-2,6.527746E-2,-1.396429E-1,7.269897E-2,-5.1625823E-3,-1.4161232E-1,-5.0016273E-2,-1.2371732E-1,1.4772356E-1,-1.0590315E-1,-1.7664956E-1,-9.149355E-2,-4.047294E-2,-1.3731027E-1],"split_indices":[5,4,10,8,5,4,4,5,2,0,8,8,2,5,5,2,5,5,4,1,1,4,17,2,2,2,0,5,0,0,25,0,0,0,0,0,0,0,0,0,0,0,0,0,0,0,0,0,0,0,0,0,0,0,0,0,0,0,0],"split_type":[0,0,0,0,0,0,0,0,0,0,0,0,0,0,0,0,0,0,0,0,0,0,0,0,0,0,0,0,0,0,0,0,0,0,0,0,0,0,0,0,0,0,0,0,0,0,0,0,0,0,0,0,0,0,0,0,0,0,0],"sum_hessian":[5.261189E3,3.3979065E3,1.8632823E3,1.8066997E3,1.5912068E3,1.5716757E3,2.9160663E2,1.2906445E3,5.1605524E2,1.2744081E3,3.1679865E2,9.9626556E2,5.7541016E2,2.8271326E2,8.893375E0,1.2024773E2,1.1703967E3,1.543773E2,3.6167795E2,1.5756034E1,1.2586521E3,2.2672298E2,9.007567E1,7.684197E2,2.2784586E2,5.6188513E2,1.3524971E1,1.4128032E2,1.4143294E2,1.6303415E0,7.2630343E0,4.517583E1,7.50719E1,3.4990326E2,8.2049347E2,4.210827E1,1.12269035E2,2.1568977E2,1.4598817E2,1.040467E1,5.351364E0,1.2437357E3,1.4916364E1,1.9137904E2,3.5343933E1,4.412396E1,4.595171E1,7.53552E2,1.4867644E1,1.3337494E2,9.447092E1,4.2684122E2,1.3504395E2,1.1359977E1,2.1649945E0,1.3088823E2,1.039209E1,2.1797988E0,5.0832353E0],"tree_param":{"num_deleted":"0","num_feature":"26","num_nodes":"59","size_leaf_vector":"1"}},{"base_weights":[2.6440101E-3,5.685709E-1,-9.935754E-1,-2.8391527E-3,1.1186556E0,-8.7589335E-1,-1.6216345E0,1.9738582E-1,-4.923032E-1,1.2796199E0,5.6633276E-1,-1.0075455E0,-4.3779904E-1,-1.6466614E0,-7.371999E-1,-8.708115E-1,3.06668E-1,3.293427E-1,-8.4087753E-1,-1.479468E-1,1.3156033E0,7.682103E-1,1.13580756E-1,-1.1699014E0,-4.9180955E-1,2.5182417E-2,-6.492128E-1,-1.516133E0,-1.7658639E-1,5.7129007E-2,-1.0558171E0,-4.0715545E-2,-1.4015275E-1,1.01285934E-1,3.141531E-3,-3.236017E-2,5.5963486E-2,-1.3465783E-1,-6.0288083E-2,2.628401E-2,-8.464994E-2,1.3442808E-1,-7.29882E-4,-5.3578015E-2,8.002123E-2,-9.3597425E-3,7.6766916E-2,-1.21453166E-1,8.931564E-2,9.526952E-3,-1.3317637E-1,-5.2071167E-3,9.813167E-2,-8.189689E-2,-3.3188865E-3,-1.5552978E-1,-5.2144375E-2,-1.3714036E-1,-4.6296593E-2],"categories":[],"categories_nodes":[],"categories_segments":[],"categories_sizes":[],"default_left":[0,0,0,0,0,0,0,0,0,0,0,0,0,0,0,0,0,0,0,0,0,0,0,0,0,0,0,0,0,0,0,0,0,0,0,0,0,0,0,0,0,0,0,0,0,0,0,0,0,0,0,0,0,0,0,0,0,0,0],"id":2,"left_children":[1,3,5,7,9,11,13,15,17,19,21,23,25,27,29,31,33,35,37,39,41,43,45,47,49,51,53,55,-1,-1,57,-1,-1,-1,-1,-1,-1,-1,-1,-1,-1,-1,-1,-1,-1,-1,-1,-1,-1,-1,-1,-1,-1,-1,-1,-1,-1,-1,-1],"loss_changes":[2.9399019E3,1.0452716E3,1.3820569E2,1.6004828E2,1.4990967E2,9.1446655E1,5.3587646E0,1.3556279E2,1.3606308E2,6.754907E1,3.5024155E1,1.0193579E2,3.6222816E1,1.8030396E0,4.7646604E0,2.5962433E1,2.0449051E2,2.1524452E1,3.9286285E1,9.731209E0,4.8533936E1,1.150856E1,1.6284485E1,8.675244E1,1.4552408E2,8.687563E0,2.6532646E1,4.8189697E0,0E0,0E0,9.326277E-1,0E0,0E0,0E0,0E0,0E0,0E0,0E0,0E0,0E0,0E0,0E0,0E0,0E0,0E0,0E0,0E0,0E0,0E0,0E0,0E0,0E0,0E0,0E0,0E0,0E0,0E0,0E0,0E0],"parents":[2147483647,0,0,1,1,2,2,3,3,4,4,5,5,6,6,7,7,8,8,9,9,10,10,11,11,12,12,13,13,14,14,15,15,16,16,17,17,18,18,19,19,20,20,21,21,22,22,23,23,24,24,25,25,26,26,27,27,30,30],"right_children":[2,4,6,8,10,12,14,16,18,20,22,24,26,28,30,32,34,36,38,40,42,44,46,48,50,52,54,56,-1,-1,58,-1,-1,-1,-1,-1,-1,-1,-1,-1,-1,-1,-1,-1,-1,-1,-1,-1,-1,-1,-1,-1,-1,-1,-1,-1,-1,-1,-1],"split_conditions":[3.7E1,4.7E1,1E0,1E0,1.5E1,2.4E1,4.3E1,1E0,8.556E1,5.1E1,1E0,1E0,1.4903E2,3.65E2,5.5E1,1E0,4E0,2.4E1,9E0,6.83333E-1,2.4E1,1.1874E2,1E2,3.558528E4,2.8043E2,1.05E2,8.13503E3,1E0,-1.7658639E-1,5.7129007E-2,7.91E0,-4.0715545E-2,-1.4015275E-1,1.01285934E-1,3.141531E-3,-3.236017E-2,5.5963486E-2,-1.3465783E-1,-6.0288083E-2,2.628401E-2,-8.464994E-2,1.3442808E-1,-7.29882E-4,-5.3578015E-2,8.002123E-2,-9.3597425E-3,7.6766916E-2,-1.21453166E-1,8.931564E-2,9.526952E-3,-1.3317637E-1,-5.2071167E-3,9.813167E-2,-8.189689E-2,-3.3188865E-3,-1.5552978E-1,-5.2144375E-2,-1.3714036E-1,-4.6296593E-2],"split_indices":[5,4,10,8,5,4,4,5,2,0,8,8,2,5,5,17,5,5,4,1,1,2,4,2,2,4,2,14,0,0,3,0,0,0,0,0,0,0,0,0,0,0,0,0,0,0,0,0,0,0,0,0,0,0,0,0,0,0,0],"split_type":[0,0,0,0,0,0,0,0,0,0,0,0,0,0,0,0,0,0,0,0,0,0,0,0,0,0,0,0,0,0,0,0,0,0,0,0,0,0,0,0,0,0,0,0,0,0,0,0,0,0,0,0,0,0,0,0,0,0,0],"sum_hessian":[5.2125557E3,3.3244497E3,1.888106E3,1.6311053E3,1.6933444E3,1.5921693E3,2.9593677E2,1.1579995E3,4.7310593E2,1.3101952E3,3.8314914E2,1.2232651E3,3.6890417E2,2.8695496E2,8.981788E0,1.06827484E2,1.051172E3,1.4094083E2,3.321651E2,3.213646E1,1.2780588E3,2.6451004E2,1.1863909E2,9.2941327E2,2.9385184E2,1.15922615E2,2.5298157E2,1.4351883E2,1.4343613E2,1.6035081E0,7.3782797E0,5.7959114E1,4.886837E1,2.9405682E2,7.571152E2,3.6642796E1,1.04298035E2,1.04808235E2,2.2735686E2,2.0629139E1,1.1507319E1,1.2509254E3,2.7133377E1,5.9589305E0,2.5855112E2,9.075117E1,2.788793E1,9.101355E2,1.9277742E1,1.7348354E2,1.203683E2,1.0813137E2,7.7912416E0,1.9807039E2,5.491118E1,1.3753976E2,5.979069E0,3.9580808E0,3.4201992E0],"tree_param":{"num_deleted":"0","num_feature":"26","num_nodes":"59","size_leaf_vector":"1"}},{"base_weights":[3.448728E-3,-4.919776E-1,9.5483035E-1,3.388708E-2,-9.1701454E-1,1.214171E0,3.2543287E-1,-1.4853631E-1,6.711257E-1,-1.0581802E0,-4.325233E-1,-1.3479072E-1,1.2499384E0,5.858656E-1,-1.2647372E-1,4.3180606E-1,-4.3299028E-1,1.3042666E0,-1.3708857E-1,-1.09118E0,7.5744504E-1,2.1555747E-6,-1.4743987E0,3.1646502E-1,-7.7720886E-1,1.2786474E0,-6.5938663E-3,7.04212E-1,1.5007556E-2,-3.1433317E-1,7.186614E-1,-7.469426E-2,8.652887E-2,4.546782E-3,-9.469388E-2,1.4707671E-1,-3.199353E-2,-4.378476E-2,2.9691173E-2,-9.151537E-2,-1.4154261E-1,1.0580287E-1,-1.2889929E-1,-5.615237E-2,5.5435956E-2,-1.6674702E-1,-4.184086E-2,6.219834E-2,-1.472699E-1,-1.02746606E-1,6.6746466E-2,1.1331277E-1,1.3770078E-1,-1.9111465E-1,5.459177E-2,6.319885E-2,1.1908706E-1,-2.0872924E-2,5.8999725E-2,3.4241345E-2,-5.4455377E-2,-2.215094E-2,8.836651E-2],"categories":[],"categories_nodes":[],"categories_segments":[],"categories_sizes":[],"default_left":[0,0,0,0,0,0,0,0,0,0,0,0,0,0,0,0,0,0,0,0,0,0,0,0,0,0,0,0,0,0,0,0,0,0,0,0,0,0,0,0,0,0,0,0,0,0,0,0,0,0,0,0,0,0,0,0,0,0,0,0,0,0,0],"id":3,"left_children":[1,3,5,7,9,11,13,15,17,19,21,23,25,27,29,31,33,35,37,39,41,43,45,47,49,51,53,55,57,59,61,-1,-1,-1,-1,-1,-1,-1,-1,-1,-1,-1,-1,-1,-1,-1,-1,-1,-1,-1,-1,-1,-1,-1,-1,-1,-1,-1,-1,-1,-1,-1,-1],"loss_changes":[2.4248894E3,7.561727E2,2.8716028E2,1.7599454E2,1.2749951E2,6.034619E1,6.0736507E1,1.9451537E2,1.7259445E2,8.7588135E1,1.9098807E2,9.846906E0,4.384265E1,2.2092667E1,3.0275215E1,1.9874988E2,1.9442162E2,5.1589203E1,1.9567257E1,7.990283E1,1.7627594E1,9.38489E1,2.4650879E1,1.1938307E1,5.7308407E0,1.54436035E1,3.0652166E1,8.771423E0,7.4819155E0,2.3704027E1,5.582569E0,0E0,0E0,0E0,0E0,0E0,0E0,0E0,0E0,0E0,0E0,0E0,0E0,0E0,0E0,0E0,0E0,0E0,0E0,0E0,0E0,0E0,0E0,0E0,0E0,0E0,0E0,0E0,0E0,0E0,0E0,0E0,0E0],"parents":[2147483647,0,0,1,1,2,2,3,3,4,4,5,5,6,6,7,7,8,8,9,9,10,10,11,11,12,12,13,13,14,14,15,15,16,16,17,17,18,18,19,19,20,20,21,21,22,22,23,23,24,24,25,25,26,26,27,27,28,28,29,29,30,30],"right_children":[2,4,6,8,10,12,14,16,18,20,22,24,26,28,30,32,34,36,38,40,42,44,46,48,50,52,54,56,58,60,62,-1,-1,-1,-1,-1,-1,-1,-1,-1,-1,-1,-1,-1,-1,-1,-1,-1,-1,-1,-1,-1,-1,-1,-1,-1,-1,-1,-1,-1,-1,-1,-1],"split_conditions":[4.7E1,3.1E1,1.5E1,8.13503E3,1E0,5.1E1,1E0,4E0,5E1,3.902803E4,7.3916E2,4.5E1,2.4E1,4.9E1,1E2,1E0,2.1549E2,7.66666E-1,1E0,3.65E2,1E0,2.7858E2,7.7E1,1E0,3.24776E3,1.7E2,3.2095E2,1.75E2,8.4E1,2.0018E2,7.7E1,-7.469426E-2,8.652887E-2,4.546782E-3,-9.469388E-2,1.4707671E-1,-3.199353E-2,-4.378476E-2,2.9691173E-2,-9.151537E-2,-1.4154261E-1,1.0580287E-1,-1.2889929E-1,-5.615237E-2,5.5435956E-2,-1.6674702E-1,-4.184086E-2,6.219834E-2,-1.472699E-1,-1.02746606E-1,6.6746466E-2,1.1331277E-1,1.3770078E-1,-1.9111465E-1,5.459177E-2,6.319885E-2,1.1908706E-1,-2.0872924E-2,5.8999725E-2,3.4241345E-2,-5.4455377E-2,-2.215094E-2,8.836651E-2],"split_indices":[4,5,5,2,8,0,8,5,0,2,2,0,1,5,4,5,2,1,18,5,20,2,0,6,3,4,2,4,0,2,0,0,0,0,0,0,0,0,0,0,0,0,0,0,0,0,0,0,0,0,0,0,0,0,0,0,0,0,0,0,0,0,0],"split_type":[0,0,0,0,0,0,0,0,0,0,0,0,0,0,0,0,0,0,0,0,0,0,0,0,0,0,0,0,0,0,0,0,0,0,0,0,0,0,0,0,0,0,0,0,0,0,0,0,0,0,0,0,0,0,0,0,0,0,0,0,0,0,0],"sum_hessian":[5.1426797E3,3.3820042E3,1.7606757E3,1.51211E3,1.8698942E3,1.2462389E3,5.1443677E2,1.1761721E3,3.3593787E2,1.4470768E3,4.228174E2,3.2118717E1,1.2141202E3,3.2616956E2,1.8826721E2,3.867032E2,7.89469E2,1.8802704E2,1.4791084E2,1.421637E3,2.5439806E1,2.994877E2,1.23329704E2,1.9164396E1,1.295432E1,1.1869827E3,2.7137596E1,2.6996805E2,5.620151E1,1.5454295E2,3.372425E1,1.0377893E2,2.8292422E2,4.0932303E2,3.8014594E2,1.7062987E2,1.7397165E1,8.736126E1,6.054958E1,9.23896E2,4.9774094E2,2.2602858E1,2.8369489E0,1.4877547E2,1.5071223E2,1.0377668E2,1.9553024E1,1.6926397E1,2.2379975E0,1.128776E1,1.6665603E0,4.8377686E2,7.032058E2,5.5493875E0,2.158821E1,2.3708205E2,3.288599E1,4.0917072E1,1.5284438E1,3.9986576E1,1.1455638E2,4.983936E0,2.8740314E1],"tree_param":{"num_deleted":"0","num_feature":"26","num_nodes":"63","size_leaf_vector":"1"}},{"base_weights":[4.296387E-3,-4.988591E-1,8.027951E-1,-8.1877224E-2,-8.860663E-1,1.1160591E0,2.127104E-1,-3.863188E-1,2.3480316E-1,-1.0119555E0,-4.145894E-1,-9.6622035E-2,1.1695292E0,4.5895132E-1,-3.180761E-1,5.1824793E-2,-1.0443135E0,3.5084382E-1,-1.178476E0,-1.0429887E0,6.66892E-1,1.669726E-1,-1.197648E0,1.4624806E-1,-1.4983484E0,-1.4235809E0,1.187703E0,6.5829015E-1,6.276754E-2,2.2851482E-1,-5.2120864E-1,-7.36088E-2,2.8238881E-2,-1.1478807E-1,-2.3849715E-2,4.3195937E-2,-1.2007894E-1,-1.8145946E-1,-1.0273836E-1,-7.421022E-2,-1.1828744E-1,1.0347142E-1,-8.2358904E-2,-5.511823E-2,1.3995987E-1,-1.3135068E-1,-9.589053E-3,-4.4490553E-2,8.540261E-2,-1.7019461E-1,-1.0794207E-2,-1.8368402E-1,-1.3988892E-2,1.0160448E-1,1.3188085E-1,-7.441732E-2,6.994995E-2,5.7954367E-2,-2.1974286E-2,3.442303E-2,-1.482686E-1,-2.4245484E-2,-7.779658E-2],"categories":[],"categories_nodes":[],"categories_segments":[],"categories_sizes":[],"default_left":[0,0,0,0,0,0,0,0,0,0,0,0,0,0,0,0,0,0,0,0,0,0,0,0,0,0,0,0,0,0,0,0,0,0,0,0,0,0,0,0,0,0,0,0,0,0,0,0,0,0,0,0,0,0,0,0,0,0,0,0,0,0,0],"id":4,"left_children":[1,3,5,7,9,11,13,15,17,19,21,23,25,27,29,31,33,35,37,39,41,43,45,47,49,51,53,55,57,59,61,-1,-1,-1,-1,-1,-1,-1,-1,-1,-1,-1,-1,-1,-1,-1,-1,-1,-1,-1,-1,-1,-1,-1,-1,-1,-1,-1,-1,-1,-1,-1,-1],"loss_changes":[2.0341077E3,5.013888E2,3.6152917E2,1.4437102E2,9.51582E1,8.299133E1,8.9010544E1,2.2013393E2,1.2081036E2,6.687561E1,1.5551343E2,1.890934E1,5.9385864E1,3.667028E1,2.4107615E1,8.362782E1,2.5195557E1,8.6004265E1,3.511673E0,5.1632935E1,1.3825676E1,1.747893E2,1.844284E1,2.0339603E1,2.1365871E0,4.5044327E0,2.6032715E1,1.8387543E1,2.3005428E1,1.2239346E1,1.1106876E1,0E0,0E0,0E0,0E0,0E0,0E0,0E0,0E0,0E0,0E0,0E0,0E0,0E0,0E0,0E0,0E0,0E0,0E0,0E0,0E0,0E0,0E0,0E0,0E0,0E0,0E0,0E0,0E0,0E0,0E0,0E0,0E0],"parents":[2147483647,0,0,1,1,2,2,3,3,4,4,5,5,6,6,7,7,8,8,9,9,10,10,11,11,12,12,13,13,14,14,15,15,16,16,17,17,18,18,19,19,20,20,21,21,22,22,23,23,24,24,25,25,26,26,27,27,28,28,29,29,30,30],"right_children":[2,4,6,8,10,12,14,16,18,20,22,24,26,28,30,32,34,36,38,40,42,44,46,48,50,52,54,56,58,60,62,-1,-1,-1,-1,-1,-1,-1,-1,-1,-1,-1,-1,-1,-1,-1,-1,-1,-1,-1,-1,-1,-1,-1,-1,-1,-1,-1,-1,-1,-1,-1,-1],"split_conditions":[3.7E1,4.6E1,1.5E1,4.0141E2,1E0,5.3E1,3.7E1,1.4903E2,1E0,3.902803E4,2.8043E2,1E0,0E0,1E0,1.4903E2,8E0,3.1E1,1E0,6E0,1.4903E2,4.6E1,2.7858E2,8.5E1,7E0,4.6E1,6.9E1,1.61E2,1.1874E2,2.2155E2,1E0,7.7E1,-7.36088E-2,2.8238881E-2,-1.1478807E-1,-2.3849715E-2,4.3195937E-2,-1.2007894E-1,-1.8145946E-1,-1.0273836E-1,-7.421022E-2,-1.1828744E-1,1.0347142E-1,-8.2358904E-2,-5.511823E-2,1.3995987E-1,-1.3135068E-1,-9.589053E-3,-4.4490553E-2,8.540261E-2,-1.7019461E-1,-1.0794207E-2,-1.8368402E-1,-1.3988892E-2,1.0160448E-1,1.3188085E-1,-7.441732E-2,6.994995E-2,5.7954367E-2,-2.1974286E-2,3.442303E-2,-1.482686E-1,-2.4245484E-2,-7.779658E-2],"split_indices":[4,5,5,2,8,0,5,2,10,2,2,6,5,8,2,4,5,6,4,2,0,2,0,5,0,4,4,2,2,11,5,0,0,0,0,0,0,0,0,0,0,0,0,0,0,0,0,0,0,0,0,0,0,0,0,0,0,0,0,0,0,0,0],"split_type":[0,0,0,0,0,0,0,0,0,0,0,0,0,0,0,0,0,0,0,0,0,0,0,0,0,0,0,0,0,0,0,0,0,0,0,0,0,0,0,0,0,0,0,0,0,0,0,0,0,0,0,0,0,0,0,0,0,0,0,0,0,0,0],"sum_hessian":[5.0608813E3,3.1048237E3,1.9560576E3,1.495518E3,1.6093058E3,1.2771522E3,6.789054E2,7.623809E2,7.3313696E2,1.2692552E3,3.4005057E2,5.3900578E1,1.2232516E3,4.6385193E2,2.1505351E2,4.581984E2,3.0418256E2,6.782032E2,5.493375E1,1.2465911E3,2.2664246E1,1.9558229E2,1.4446829E2,4.6704063E1,7.196513E0,7.9753237E0,1.2152762E3,3.08147E2,1.5570493E2,5.8233456E1,1.5682005E2,1.0323115E2,3.5496725E2,2.691639E2,3.5018658E1,6.451956E2,3.300761E1,8.430489E0,4.650326E1,3.976254E2,8.4896564E2,1.8423471E1,4.240775E0,1.23930504E2,7.165178E1,1.3054791E2,1.3920368E1,2.5651068E1,2.1052996E1,6.0818777E0,1.1146355E0,5.707124E0,2.2681997E0,5.3003845E2,6.8523785E2,8.309053E0,2.9983795E2,5.466279E1,1.0104214E2,5.5293232E1,2.9402232E0,7.612146E1,8.069859E1],"tree_param":{"num_deleted":"0","num_feature":"26","num_nodes":"63","size_leaf_vector":"1"}},{"base_weights":[4.6752696E-3,-3.796527E-1,8.995131E-1,5.6372747E-2,-7.416716E-1,1.1269894E0,3.3057043E-1,-9.215516E-2,5.940093E-1,-6.4497006E-1,-1.2744507E0,-3.341327E-1,1.1599866E0,9.9853724E-2,6.952695E-1,4.1162446E-1,-3.309674E-1,1.2002965E0,-1.3102056E-1,-8.2036895E-1,-4.0357465E-1,-1.1614548E0,-1.3895084E0,3.4193292E-2,-1.0323329E0,1.1836821E0,-6.284856E-2,3.8741553E-1,-2.446495E-1,5.20065E-1,1.0176663E0,-5.741764E-2,8.016008E-2,6.0760826E-3,-7.5227015E-2,1.3238084E-1,-7.418668E-2,-2.124568E-2,1.3145761E-1,-4.590494E-2,-1.2954244E-1,8.8332765E-2,-6.376146E-2,-1.6183236E-1,-1.0655319E-1,-1.1778288E-1,-1.464962E-1,5.9350993E-2,-5.1111337E-2,-1.4910643E-1,4.7362648E-2,1.2742458E-1,1.0300894E-1,-1.7067584E-1,4.1600898E-2,1.1158303E-1,3.0490963E-2,5.807852E-4,-7.035869E-2,5.6723695E-2,-5.858897E-2,3.1454604E-2,1.1167689E-1],"categories":[],"categories_nodes":[],"categories_segments":[],"categories_sizes":[],"default_left":[0,0,0,0,0,0,0,0,0,0,0,0,0,0,0,0,0,0,0,0,0,0,0,0,0,0,0,0,0,0,0,0,0,0,0,0,0,0,0,0,0,0,0,0,0,0,0,0,0,0,0,0,0,0,0,0,0,0,0,0,0,0,0],"id":5,"left_children":[1,3,5,7,9,11,13,15,17,19,21,23,25,27,29,31,33,35,37,39,41,43,45,47,49,51,53,55,57,59,61,-1,-1,-1,-1,-1,-1,-1,-1,-1,-1,-1,-1,-1,-1,-1,-1,-1,-1,-1,-1,-1,-1,-1,-1,-1,-1,-1,-1,-1,-1,-1,-1],"loss_changes":[1.7102607E3,5.49175E2,1.9300037E2,1.2614783E2,9.710803E1,5.1828735E1,3.595828E1,1.4909154E2,1.504642E2,6.7871765E1,2.1691895E0,6.2946734E0,3.0314209E1,2.6191805E1,8.832962E0,1.5370248E2,1.3875797E2,4.5675537E1,1.8717295E1,1.593753E2,2.053237E2,4.9762115E0,4.9594116E-1,5.4584527E0,6.53535E0,1.2928833E1,1.7074286E1,8.312061E0,1.3850544E1,6.0414143E0,3.642395E0,0E0,0E0,0E0,0E0,0E0,0E0,0E0,0E0,0E0,0E0,0E0,0E0,0E0,0E0,0E0,0E0,0E0,0E0,0E0,0E0,0E0,0E0,0E0,0E0,0E0,0E0,0E0,0E0,0E0,0E0,0E0,0E0],"parents":[2147483647,0,0,1,1,2,2,3,3,4,4,5,5,6,6,7,7,8,8,9,9,10,10,11,11,12,12,13,13,14,14,15,15,16,16,17,17,18,18,19,19,20,20,21,21,22,22,23,23,24,24,25,25,26,26,27,27,28,28,29,29,30,30],"right_children":[2,4,6,8,10,12,14,16,18,20,22,24,26,28,30,32,34,36,38,40,42,44,46,48,50,52,54,56,58,60,62,-1,-1,-1,-1,-1,-1,-1,-1,-1,-1,-1,-1,-1,-1,-1,-1,-1,-1,-1,-1,-1,-1,-1,-1,-1,-1,-1,-1,-1,-1,-1,-1],"split_conditions":[5.3E1,3.1E1,1.5E1,8.13503E3,1E0,5.1E1,1E2,4E0,5E1,2.7533E2,3.65E2,9.83333E-1,2.4E1,1E0,1.57E2,1E0,2.1549E2,1E0,1E0,1.4903E2,2.8043E2,7.788E2,1E0,4.4E1,1E0,4E0,3.2095E2,3.6E1,5.2908E2,3.122359E4,7.8E1,-5.741764E-2,8.016008E-2,6.0760826E-3,-7.5227015E-2,1.3238084E-1,-7.418668E-2,-2.124568E-2,1.3145761E-1,-4.590494E-2,-1.2954244E-1,8.8332765E-2,-6.376146E-2,-1.6183236E-1,-1.0655319E-1,-1.1778288E-1,-1.464962E-1,5.9350993E-2,-5.1111337E-2,-1.4910643E-1,4.7362648E-2,1.2742458E-1,1.0300894E-1,-1.7067584E-1,4.1600898E-2,1.1158303E-1,3.0490963E-2,5.807852E-4,-7.035869E-2,5.6723695E-2,-5.858897E-2,3.1454604E-2,1.1167689E-1],"split_indices":[4,5,5,2,10,0,4,5,0,2,5,1,1,8,4,5,2,8,23,2,2,2,25,0,19,5,2,0,2,2,0,0,0,0,0,0,0,0,0,0,0,0,0,0,0,0,0,0,0,0,0,0,0,0,0,0,0,0,0,0,0,0,0],"split_type":[0,0,0,0,0,0,0,0,0,0,0,0,0,0,0,0,0,0,0,0,0,0,0,0,0,0,0,0,0,0,0,0,0,0,0,0,0,0,0,0,0,0,0,0,0,0,0,0,0,0,0,0,0,0,0,0,0,0,0,0,0,0,0],"sum_hessian":[4.970978E3,3.4778403E3,1.4931378E3,1.5780447E3,1.8997958E3,1.0659613E3,4.271765E2,1.2371086E3,3.4093604E2,1.6098177E3,2.89978E2,2.3339893E1,1.0426215E3,2.624308E2,1.6474573E2,3.976126E2,8.3949603E2,1.853154E2,1.5562064E2,9.309715E2,6.788463E2,1.5189717E2,1.3808083E2,1.5902024E1,7.4378695E0,1.02283344E3,1.9787968E1,1.4296843E2,1.19462364E2,1.0843208E2,5.6313637E1,1.1257297E2,2.8503964E2,4.3546005E2,4.0403598E2,1.7453426E2,1.0781132E1,1.4812897E2,7.491666E0,5.299024E2,4.0106906E2,1.0403276E2,5.7481354E2,2.3603848E1,1.2829332E2,4.06501E1,9.743072E1,7.8065314E0,8.095492E0,5.7087984E0,1.7290711E0,6.3884924E2,3.8398422E2,3.8853607E0,1.5902608E1,1.3271847E1,1.2969658E2,7.7924E1,4.1538364E1,1.0446354E2,3.9685473E0,7.4723334E0,4.8841305E1],"tree_param":{"num_deleted":"0","num_feature":"26","num_nodes":"63","size_leaf_vector":"1"}},{"base_weights":[5.1695355E-3,-4.142728E-1,7.149714E-1,-7.115556E-2,-7.337571E-1,1.0208857E0,1.8743147E-1,-3.3029768E-1,2.035075E-1,-8.416974E-1,-3.3226505E-1,-7.868773E-2,1.074616E0,3.788243E-1,-3.0675578E-1,3.8021076E-2,-8.7677366E-1,3.0396122E-1,-9.687765E-1,-8.699384E-1,6.7315173E-1,1.8238203E-1,-1.0257349E0,1.359162E-1,-1.2964195E0,-1.2974745E0,1.093443E0,5.5392814E-1,5.347179E-2,1.7609008E-1,-4.8311254E-1,-5.6767564E-2,2.8724616E-2,-9.718413E-2,-1.3950119E-2,-1.2286379E-1,3.7393652E-2,-1.6103993E-1,-8.446097E-2,-7.139807E-2,-1.10850684E-1,1.01129845E-1,-6.78591E-2,-3.9385498E-2,1.2585121E-1,-1.1325611E-1,-2.7298515E-3,5.679378E-2,-6.671213E-2,-1.4637323E-1,-1.0667016E-2,-1.5627943E-1,9.142908E-3,9.1558546E-2,1.2349522E-1,-5.1731285E-2,5.91243E-2,4.5423448E-2,-1.626451E-2,2.7390212E-2,-1.2234324E-1,-6.5114535E-2,1.5978944E-3],"categories":[],"categories_nodes":[],"categories_segments":[],"categories_sizes":[],"default_left":[0,0,0,0,0,0,0,0,0,0,0,0,0,0,0,0,0,0,0,0,0,0,0,0,0,0,0,0,0,0,0,0,0,0,0,0,0,0,0,0,0,0,0,0,0,0,0,0,0,0,0,0,0,0,0,0,0,0,0,0,0,0,0],"id":6,"left_children":[1,3,5,7,9,11,13,15,17,19,21,23,25,27,29,31,33,35,37,39,41,43,45,47,49,51,53,55,57,59,61,-1,-1,-1,-1,-1,-1,-1,-1,-1,-1,-1,-1,-1,-1,-1,-1,-1,-1,-1,-1,-1,-1,-1,-1,-1,-1,-1,-1,-1,-1,-1,-1],"loss_changes":[1.451847E3,3.359591E2,2.9212323E2,1.0534153E2,6.850366E1,6.780603E1,6.3114655E1,1.5328815E2,8.4922134E1,5.4070923E1,1.2079767E2,1.4375287E1,5.022815E1,2.734829E1,1.5965757E1,6.896929E1,2.1354538E1,7.1528366E1,3.1776962E0,4.4889893E1,1.140256E1,1.2131307E2,1.5340088E1,1.671867E1,1.4832497E0,3.4828053E0,2.6173828E1,1.2789986E1,1.4732914E1,7.2653203E0,1.1488798E1,0E0,0E0,0E0,0E0,0E0,0E0,0E0,0E0,0E0,0E0,0E0,0E0,0E0,0E0,0E0,0E0,0E0,0E0,0E0,0E0,0E0,0E0,0E0,0E0,0E0,0E0,0E0,0E0,0E0,0E0,0E0,0E0],"parents":[2147483647,0,0,1,1,2,2,3,3,4,4,5,5,6,6,7,7,8,8,9,9,10,10,11,11,12,12,13,13,14,14,15,15,16,16,17,17,18,18,19,19,20,20,21,21,22,22,23,23,24,24,25,25,26,26,27,27,28,28,29,29,30,30],"right_children":[2,4,6,8,10,12,14,16,18,20,22,24,26,28,30,32,34,36,38,40,42,44,46,48,50,52,54,56,58,60,62,-1,-1,-1,-1,-1,-1,-1,-1,-1,-1,-1,-1,-1,-1,-1,-1,-1,-1,-1,-1,-1,-1,-1,-1,-1,-1,-1,-1,-1,-1,-1,-1],"split_conditions":[3.7E1,4.6E1,1.5E1,4.0141E2,1E0,5.3E1,4.6E1,1.4903E2,1E0,3.902803E4,2.8043E2,1E0,0E0,1E0,1.4903E2,1E1,3.1E1,0E0,5E0,3.65E2,4.6E1,2.7858E2,8.5E1,4.5E1,4.6E1,9.5E1,1.61E2,1.3775E2,2.3144E2,1E0,5.23677E3,-5.6767564E-2,2.8724616E-2,-9.718413E-2,-1.3950119E-2,-1.2286379E-1,3.7393652E-2,-1.6103993E-1,-8.446097E-2,-7.139807E-2,-1.10850684E-1,1.01129845E-1,-6.78591E-2,-3.9385498E-2,1.2585121E-1,-1.1325611E-1,-2.7298515E-3,5.679378E-2,-6.671213E-2,-1.4637323E-1,-1.0667016E-2,-1.5627943E-1,9.142908E-3,9.1558546E-2,1.2349522E-1,-5.1731285E-2,5.91243E-2,4.5423448E-2,-1.626451E-2,2.7390212E-2,-1.2234324E-1,-6.5114535E-2,1.5978944E-3],"split_indices":[4,5,5,2,8,0,5,2,10,2,2,6,5,8,2,4,5,5,4,5,0,2,0,0,0,4,4,2,2,11,2,0,0,0,0,0,0,0,0,0,0,0,0,0,0,0,0,0,0,0,0,0,0,0,0,0,0,0,0,0,0,0,0],"split_type":[0,0,0,0,0,0,0,0,0,0,0,0,0,0,0,0,0,0,0,0,0,0,0,0,0,0,0,0,0,0,0,0,0,0,0,0,0,0,0,0,0,0,0,0,0,0,0,0,0,0,0,0,0,0,0,0,0,0,0,0,0,0,0],"sum_hessian":[4.8745415E3,3.0642212E3,1.8103201E3,1.4780546E3,1.5861667E3,1.1452612E3,6.6505884E2,7.60411E2,7.176435E2,1.24922E3,3.3694678E2,5.333391E1,1.0919272E3,4.7956317E2,1.8549567E2,4.5480676E2,3.0560428E2,6.616841E2,5.595939E1,1.2267753E3,2.2444761E1,1.9383348E2,1.4311328E2,4.609828E1,7.2356296E0,8.063474E0,1.0838638E3,3.113129E2,1.6825029E2,4.962614E1,1.3586954E2,1.3221187E2,3.225949E2,2.7041718E2,3.518709E1,2.8168974E1,6.3351514E2,7.1325965E0,4.8826794E1,7.442408E2,4.8253442E2,1.8155025E1,4.289735E0,1.2665002E2,6.7183464E1,1.291597E2,1.3953579E1,3.0163534E1,1.5934746E1,6.1416526E0,1.0939773E0,6.6650596E0,1.3984139E0,4.8356262E2,6.0030115E2,1.0046038E1,3.0126688E2,5.855861E1,1.0969167E2,4.7136105E1,2.4900334E0,1.014193E2,3.4450237E1],"tree_param":{"num_deleted":"0","num_feature":"26","num_nodes":"63","size_leaf_vector":"1"}},{"base_weights":[5.297774E-3,-2.7610314E-1,9.3359065E-1,9.0737715E-2,-6.0472494E-1,1.1004951E0,4.285768E-1,2.5146797E-1,-2.862531E-1,-5.18155E-1,-1.1101785E0,1.1203444E0,-8.7314355E-1,3.05071E-1,9.3876535E-1,-6.513449E-1,3.3135065E-1,-4.811336E-1,4.2095E-1,-6.6260064E-1,-3.191097E-1,-7.2340494E-1,-1.1447965E0,9.641261E-1,1.211369E0,-1.1488523E0,4.0577237E-2,4.5476428E-1,-1.0322627E-1,2.5273317E-1,1.0399699E0,2.2355897E-2,-8.655817E-2,-5.1712092E-2,4.3983325E-2,-8.003433E-2,-1.2167532E-2,5.4034527E-2,-7.7287066E-3,-3.3168614E-2,-1.1034342E-1,8.126266E-2,-5.1087733E-2,-1.4200418E-1,-5.2851934E-2,-9.3355246E-2,-1.2130308E-1,1.13898985E-1,8.30063E-2,1.21495046E-1,6.662097E-2,-1.4647636E-1,1.3263329E-2,-7.511532E-2,4.786117E-2,4.5448795E-2,-3.5362422E-2,6.1544985E-2,-9.12697E-2,1.0768002E-1,-2.3481902E-2],"categories":[],"categories_nodes":[],"categories_segments":[],"categories_sizes":[],"default_left":[0,0,0,0,0,0,0,0,0,0,0,0,0,0,0,0,0,0,0,0,0,0,0,0,0,0,0,0,0,0,0,0,0,0,0,0,0,0,0,0,0,0,0,0,0,0,0,0,0,0,0,0,0,0,0,0,0,0,0,0,0],"id":7,"left_children":[1,3,5,7,9,11,13,15,17,19,21,23,25,27,29,31,33,35,37,39,41,43,45,47,49,51,-1,53,55,57,59,-1,-1,-1,-1,-1,-1,-1,-1,-1,-1,-1,-1,-1,-1,-1,-1,-1,-1,-1,-1,-1,-1,-1,-1,-1,-1,-1,-1,-1,-1],"loss_changes":[1.2476115E3,4.4188388E2,9.317444E1,1.0506227E2,8.402295E1,3.3666016E1,1.7206345E1,8.7862404E1,7.164653E1,4.730075E1,2.9454346E0,1.0585083E1,3.5938644E0,1.3798075E1,3.4603157E0,1.87738E1,1.03057144E2,4.658721E1,6.735386E0,1.3919183E2,1.516536E2,2.7616968E0,2.5714722E0,6.302887E0,2.0263672E-1,3.254054E0,0E0,5.09927E0,8.703563E0,4.0343165E0,2.431839E0,0E0,0E0,0E0,0E0,0E0,0E0,0E0,0E0,0E0,0E0,0E0,0E0,0E0,0E0,0E0,0E0,0E0,0E0,0E0,0E0,0E0,0E0,0E0,0E0,0E0,0E0,0E0,0E0,0E0,0E0],"parents":[2147483647,0,0,1,1,2,2,3,3,4,4,5,5,6,6,7,7,8,8,9,9,10,10,11,11,12,12,13,13,14,14,15,15,16,16,17,17,18,18,19,19,20,20,21,21,22,22,23,23,24,24,25,25,27,27,28,28,29,29,30,30],"right_children":[2,4,6,8,10,12,14,16,18,20,22,24,26,28,30,32,34,36,38,40,42,44,46,48,50,52,-1,54,56,58,60,-1,-1,-1,-1,-1,-1,-1,-1,-1,-1,-1,-1,-1,-1,-1,-1,-1,-1,-1,-1,-1,-1,-1,-1,-1,-1,-1,-1,-1,-1],"split_conditions":[7.2E1,3.1E1,1.5E1,1E0,1E0,2.4E1,1.57E2,1.4258E2,3E1,2.7858E2,5.5E1,1.8E2,4E0,7.3916E2,7.8E1,3.8E1,1E0,2.1E1,8.3E1,1.4903E2,2.8043E2,7.788E2,5.6E1,4E0,1E0,1.37E2,4.0577237E-2,4.7E1,1E0,1.8E2,1E0,2.2355897E-2,-8.655817E-2,-5.1712092E-2,4.3983325E-2,-8.003433E-2,-1.2167532E-2,5.4034527E-2,-7.7287066E-3,-3.3168614E-2,-1.1034342E-1,8.126266E-2,-5.1087733E-2,-1.4200418E-1,-5.2851934E-2,-9.3355246E-2,-1.2130308E-1,1.13898985E-1,8.30063E-2,1.21495046E-1,6.662097E-2,-1.4647636E-1,1.3263329E-2,-7.511532E-2,4.786117E-2,4.5448795E-2,-3.5362422E-2,6.1544985E-2,-9.12697E-2,1.0768002E-1,-2.3481902E-2],"split_indices":[4,5,5,8,10,1,4,2,5,2,5,4,5,2,0,0,5,4,0,2,2,2,0,5,10,4,0,0,25,4,10,0,0,0,0,0,0,0,0,0,0,0,0,0,0,0,0,0,0,0,0,0,0,0,0,0,0,0,0,0,0],"split_type":[0,0,0,0,0,0,0,0,0,0,0,0,0,0,0,0,0,0,0,0,0,0,0,0,0,0,0,0,0,0,0,0,0,0,0,0,0,0,0,0,0,0,0,0,0,0,0,0,0,0,0,0,0,0,0,0,0,0,0,0,0],"sum_hessian":[4.774063E3,3.6640518E3,1.110011E3,1.7316892E3,1.9323625E3,8.333981E2,2.7661288E2,1.2143032E3,5.17386E2,1.6515276E3,2.8083496E2,8.2552795E2,7.87016E0,2.239881E2,5.262479E1,9.812839E1,1.1161749E3,4.0586374E2,1.1152222E2,9.556737E2,6.958539E2,2.4869917E1,2.5596506E2,3.0819293E2,5.17335E2,6.5580697E0,1.3120906E0,1.6381506E2,6.0173027E1,7.214868E0,4.5409924E1,1.929355E1,7.883484E1,1.2610522E2,9.9006964E2,2.1431718E2,1.9154655E2,8.9895546E1,2.162667E1,5.468955E2,4.087782E2,1.0035586E2,5.9549805E2,4.062301E0,2.0807617E1,6.6078094E1,1.8988696E2,1.3049171E2,1.777012E2,5.12738E2,4.5970488E0,5.146369E0,1.4117004E0,2.5852594E0,1.612298E2,1.839239E1,4.178064E1,5.862267E0,1.3526008E0,4.428576E1,1.1241624E0],"tree_param":{"num_deleted":"0","num_feature":"26","num_nodes":"61","size_leaf_vector":"1"}},{"base_weights":[5.4504215E-3,-2.5113118E-1,8.916384E-1,4.5196902E-2,-5.908918E-1,1.0644763E0,3.9388505E-1,-5.124069E-1,1.3606046E-1,-5.092489E-1,-1.0455996E0,1.0845926E0,-7.8766567E-1,2.781688E-1,8.886775E-1,-9.314959E-1,5.5290062E-2,1.7609143E-1,-8.1228715E-1,-5.3191775E-1,8.274101E-1,-3.1848645E-1,-1.0667852E0,9.2183024E-1,1.1813062E0,-1.4390498E-1,-1.982846E-1,4.1654605E-1,-9.238986E-2,2.2753029E-1,9.902214E-1,-1.11744106E-1,-1.4745139E-2,1.16207086E-1,-2.3097979E-2,3.1162E-2,-1.3005266E-2,-2.1435778E-1,-6.499683E-2,-2.9981652E-2,-6.340819E-2,1.03775956E-1,-8.777822E-2,-7.723017E-2,1.3031234E-2,-1.07724205E-1,-9.892287E-3,7.278233E-2,1.0463061E-1,1.185053E-1,6.334896E-2,-8.086117E-2,1.3822608E-2,-3.7579522E-3,4.775955E-2,4.1788444E-2,-3.1616103E-2,5.7677228E-2,-8.39024E-2,1.0274434E-1,-2.2095524E-2],"categories":[],"categories_nodes":[],"categories_segments":[],"categories_sizes":[],"default_left":[0,0,0,0,0,0,0,0,0,0,0,0,0,0,0,0,0,0,0,0,0,0,0,0,0,0,0,0,0,0,0,0,0,0,0,0,0,0,0,0,0,0,0,0,0,0,0,0,0,0,0,0,0,0,0,0,0,0,0,0,0],"id":8,"left_children":[1,3,5,7,9,11,13,15,17,19,21,23,25,27,29,31,33,35,37,39,41,43,45,47,49,-1,51,53,55,57,59,-1,-1,-1,-1,-1,-1,-1,-1,-1,-1,-1,-1,-1,-1,-1,-1,-1,-1,-1,-1,-1,-1,-1,-1,-1,-1,-1,-1,-1,-1],"loss_changes":[1.0644595E3,3.6553125E2,9.000745E1,9.836344E1,6.22547E1,2.9901123E1,1.5354767E1,6.477619E1,6.3503353E1,4.394568E1,3.6114197E0,1.10578E1,3.1528726E0,1.1437523E1,3.211609E0,2.2660797E1,3.7174786E1,6.651843E1,1.3252487E1,3.3302826E1,9.639721E0,1.8700495E0,2.411621E0,6.294037E0,2.3547363E-1,0E0,1.3156E0,4.510414E0,7.127272E0,3.5063477E0,2.2142258E0,0E0,0E0,0E0,0E0,0E0,0E0,0E0,0E0,0E0,0E0,0E0,0E0,0E0,0E0,0E0,0E0,0E0,0E0,0E0,0E0,0E0,0E0,0E0,0E0,0E0,0E0,0E0,0E0,0E0,0E0],"parents":[2147483647,0,0,1,1,2,2,3,3,4,4,5,5,6,6,7,7,8,8,9,9,10,10,11,11,12,12,13,13,14,14,15,15,16,16,17,17,18,18,19,19,20,20,21,21,22,22,23,23,24,24,26,26,27,27,28,28,29,29,30,30],"right_children":[2,4,6,8,10,12,14,16,18,20,22,24,26,28,30,32,34,36,38,40,42,44,46,48,50,-1,52,54,56,58,60,-1,-1,-1,-1,-1,-1,-1,-1,-1,-1,-1,-1,-1,-1,-1,-1,-1,-1,-1,-1,-1,-1,-1,-1,-1,-1,-1,-1,-1,-1],"split_conditions":[7.2E1,4.6E1,1.5E1,6E0,1E0,2.4E1,1.57E2,5.2908E2,1E0,3.902803E4,5.5E1,1.8E2,9.7E1,7.3916E2,7.8E1,2.9E1,5.9153E2,1E0,2.3471E2,1.4618E2,1E0,1.17564E3,1E0,1E0,1E0,-1.4390498E-1,3.2095E2,6.3E1,1E0,1.8E2,1E0,-1.11744106E-1,-1.4745139E-2,1.16207086E-1,-2.3097979E-2,3.1162E-2,-1.3005266E-2,-2.1435778E-1,-6.499683E-2,-2.9981652E-2,-6.340819E-2,1.03775956E-1,-8.777822E-2,-7.723017E-2,1.3031234E-2,-1.07724205E-1,-9.892287E-3,7.278233E-2,1.0463061E-1,1.185053E-1,6.334896E-2,-8.086117E-2,1.3822608E-2,-3.7579522E-3,4.775955E-2,4.1788444E-2,-3.1616103E-2,5.7677228E-2,-8.39024E-2,1.0274434E-1,-2.2095524E-2],"split_indices":[4,5,5,4,10,1,4,2,10,2,5,4,4,2,0,5,2,8,2,2,20,2,23,20,10,0,2,0,25,4,10,0,0,0,0,0,0,0,0,0,0,0,0,0,0,0,0,0,0,0,0,0,0,0,0,0,0,0,0,0,0],"split_type":[0,0,0,0,0,0,0,0,0,0,0,0,0,0,0,0,0,0,0,0,0,0,0,0,0,0,0,0,0,0,0,0,0,0,0,0,0,0,0,0,0,0,0,0,0,0,0,0,0,0,0,0,0,0,0,0,0,0,0,0,0],"sum_hessian":[4.679437E3,3.6293372E3,1.0501E3,1.9390385E3,1.6902986E3,7.786027E2,2.7149725E2,2.7104895E2,1.6679895E3,1.4347999E3,2.5549875E2,7.7064703E2,7.955703E0,2.2130357E2,5.0193687E1,1.555655E2,1.1548343E2,1.6012145E3,6.677501E1,1.4114644E3,2.3335464E1,7.6875534E0,2.4781119E2,2.9116623E2,4.7948077E2,3.0942774E0,4.8614254E0,1.6104182E2,6.0261753E1,7.114199E0,4.3079487E1,1.2540019E2,3.0165318E1,2.3102982E1,9.238045E1,1.1098647E3,4.9134976E2,5.9303226E0,6.084469E1,4.3259927E2,9.788651E2,2.1121382E1,2.214083E0,3.4640079E0,4.223546E0,2.4505064E2,2.7605467E0,1.16475555E2,1.7469069E2,4.7506836E2,4.412415E0,1.2291656E0,3.6322598E0,1.9129393E1,1.4191243E2,1.8106138E1,4.2155613E1,5.705243E0,1.4089563E0,4.194221E1,1.137276E0],"tree_param":{"num_deleted":"0","num_feature":"26","num_nodes":"61","size_leaf_vector":"1"}},{"base_weights":[5.526809E-3,-2.2807656E-1,8.5202414E-1,7.884252E-2,-5.0443465E-1,1.0310166E0,3.6220458E-1,-1.18617594E-1,3.4004608E-1,-4.295114E-1,-9.6461E-1,1.0515431E0,-7.3173076E-1,2.538887E-1,8.4214747E-1,-4.516214E-1,2.2139217E-1,3.943433E-1,-6.66168E-1,-5.638375E-1,-2.4440782E-1,-8.4796697E-1,-1.0963689E0,8.816316E-1,1.1547043E0,-9.73401E-1,3.926091E-2,3.8176975E-1,-8.27463E-2,2.0489335E-1,9.4411737E-1,-6.547799E-3,-9.69125E-2,7.4725375E-2,-1.7180833E-3,5.0975848E-2,3.5768922E-3,-1.296764E-1,-3.75338E-2,-2.7293572E-2,-9.594496E-2,7.94708E-2,-4.22021E-2,-9.015943E-2,-1.2359935E-2,-8.2504995E-2,-1.1624253E-1,1.0738611E-1,7.3696464E-2,1.158656E-1,6.0222566E-2,-1.24957815E-1,1.4562041E-2,-6.8628564E-2,4.0402792E-2,1.5156411E-2,-4.9671914E-2,5.4050017E-2,-7.73157E-2,9.817947E-2,-2.0794166E-2],"categories":[],"categories_nodes":[],"categories_segments":[],"categories_sizes":[],"default_left":[0,0,0,0,0,0,0,0,0,0,0,0,0,0,0,0,0,0,0,0,0,0,0,0,0,0,0,0,0,0,0,0,0,0,0,0,0,0,0,0,0,0,0,0,0,0,0,0,0,0,0,0,0,0,0,0,0,0,0,0,0],"id":9,"left_children":[1,3,5,7,9,11,13,15,17,19,21,23,25,27,29,31,33,35,37,39,41,43,45,47,49,51,-1,53,55,57,59,-1,-1,-1,-1,-1,-1,-1,-1,-1,-1,-1,-1,-1,-1,-1,-1,-1,-1,-1,-1,-1,-1,-1,-1,-1,-1,-1,-1,-1,-1],"loss_changes":[9.0874677E2,3.0553033E2,8.67677E1,8.8100105E1,6.493207E1,2.7088379E1,1.3694496E1,1.1027304E2,4.04348E1,4.0434235E1,3.1365051E0,1.1592102E1,2.8173838E0,9.490005E0,2.979622E0,9.823686E1,6.0499245E1,2.8879593E1,6.485607E0,1.0846954E2,1.27302536E2,5.5115585E0,1.2063904E0,6.8842163E0,2.7252197E-1,2.5505366E0,0E0,4.066757E0,6.0220804E0,3.0480797E0,2.019329E0,0E0,0E0,0E0,0E0,0E0,0E0,0E0,0E0,0E0,0E0,0E0,0E0,0E0,0E0,0E0,0E0,0E0,0E0,0E0,0E0,0E0,0E0,0E0,0E0,0E0,0E0,0E0,0E0,0E0,0E0],"parents":[2147483647,0,0,1,1,2,2,3,3,4,4,5,5,6,6,7,7,8,8,9,9,10,10,11,11,12,12,13,13,14,14,15,15,16,16,17,17,18,18,19,19,20,20,21,21,22,22,23,23,24,24,25,25,27,27,28,28,29,29,30,30],"right_children":[2,4,6,8,10,12,14,16,18,20,22,24,26,28,30,32,34,36,38,40,42,44,46,48,50,52,-1,54,56,58,60,-1,-1,-1,-1,-1,-1,-1,-1,-1,-1,-1,-1,-1,-1,-1,-1,-1,-1,-1,-1,-1,-1,-1,-1,-1,-1,-1,-1,-1,-1],"split_conditions":[7.2E1,3.1E1,1.5E1,2.4E1,1E0,2.4E1,1.57E2,4.0141E2,9.2E1,2.7858E2,3.65E2,1.8E2,4E0,7.3916E2,7.8E1,1.5284E2,5.9153E2,1.1978E2,1E0,1.4903E2,2.8043E2,3.29E2,5.1E1,4E0,1E0,1.37E2,3.926091E-2,4.7E1,1E0,1.8E2,1E0,-6.547799E-3,-9.69125E-2,7.4725375E-2,-1.7180833E-3,5.0975848E-2,3.5768922E-3,-1.296764E-1,-3.75338E-2,-2.7293572E-2,-9.594496E-2,7.94708E-2,-4.22021E-2,-9.015943E-2,-1.2359935E-2,-8.2504995E-2,-1.1624253E-1,1.0738611E-1,7.3696464E-2,1.158656E-1,6.0222566E-2,-1.24957815E-1,1.4562041E-2,-6.8628564E-2,4.0402792E-2,1.5156411E-2,-4.9671914E-2,5.4050017E-2,-7.73157E-2,9.817947E-2,-2.0794166E-2],"split_indices":[4,5,5,4,10,1,4,2,0,2,5,4,5,2,0,2,2,3,20,2,2,5,0,5,10,4,0,0,8,4,10,0,0,0,0,0,0,0,0,0,0,0,0,0,0,0,0,0,0,0,0,0,0,0,0,0,0,0,0,0,0],"split_type":[0,0,0,0,0,0,0,0,0,0,0,0,0,0,0,0,0,0,0,0,0,0,0,0,0,0,0,0,0,0,0,0,0,0,0,0,0,0,0,0,0,0,0,0,0,0,0,0,0,0,0,0,0,0,0,0,0,0,0,0,0],"sum_hessian":[4.5935747E3,3.6006523E3,9.929223E2,1.7063362E3,1.8943162E3,7.263799E2,2.6654242E2,9.720492E2,7.342869E2,1.6307411E3,2.6357507E2,7.184176E2,7.9622483E0,2.1871153E2,4.7830902E1,4.909182E2,4.81131E2,6.9726904E2,3.7017845E1,9.437984E2,6.869427E2,1.4375131E2,1.1982375E2,2.7500955E2,4.4340805E2,6.6640882E0,1.2981601E0,1.5840317E2,6.0308353E1,7.012996E0,4.0817905E1,2.8178583E2,2.0913239E2,1.4949115E2,3.3163986E2,5.2716693E2,1.7010211E2,1.0592239E1,2.6425606E1,5.4484924E2,3.9894916E2,9.9769936E1,5.871727E2,1.3361472E2,1.0136597E1,2.6102154E1,9.37216E1,1.1533398E2,1.5967557E2,4.3916965E2,4.238413E0,5.2513676E0,1.4127206E0,2.624688E0,1.5577849E2,3.891575E1,2.1392603E1,5.5544276E0,1.4585685E0,3.966837E1,1.149536E0],"tree_param":{"num_deleted":"0","num_feature":"26","num_nodes":"61","size_leaf_vector":"1"}},{"base_weights":[5.549816E-3,-2.077808E-1,8.1434983E-1,3.2659367E-2,-5.040051E-1,9.997784E-1,3.3261564E-1,-4.527281E-1,1.1297619E-1,-4.3189844E-1,-9.2121434E-1,1.0205789E0,-6.656637E-1,2.3118454E-1,7.985029E-1,-8.005838E-1,2.4900975E-2,1.4876091E-1,-6.9901574E-1,-4.532738E-1,7.974931E-1,2.5203553E-1,-9.3722296E-1,8.430662E-1,1.1309327E0,-1.2483541E-1,-1.4862238E-1,4.9335462E-1,7.109841E-2,4.4144833E-1,1.0009829E0,-9.659735E-2,-2.2439577E-2,1.0801047E-1,-2.1318855E-2,2.6387665E-2,-1.0758648E-2,-1.8994407E-1,-5.5389423E-2,-5.491745E-2,-2.143663E-2,9.984815E-2,-7.852103E-2,-2.2819577E-2,6.5802544E-2,-7.2929464E-2,-1.00587666E-1,6.341071E-2,9.800645E-2,1.1351278E-1,5.7230204E-2,-7.3782496E-2,1.6688202E-2,5.9657168E-2,-9.722805E-3,2.9755667E-2,-2.7765999E-2,8.4848635E-2,-1.5740436E-2,1.0572457E-1,9.390747E-3],"categories":[],"categories_nodes":[],"categories_segments":[],"categories_sizes":[],"default_left":[0,0,0,0,0,0,0,0,0,0,0,0,0,0,0,0,0,0,0,0,0,0,0,0,0,0,0,0,0,0,0,0,0,0,0,0,0,0,0,0,0,0,0,0,0,0,0,0,0,0,0,0,0,0,0,0,0,0,0,0,0],"id":10,"left_children":[1,3,5,7,9,11,13,15,17,19,21,23,25,27,29,31,33,35,37,39,41,43,45,47,49,-1,51,53,55,57,59,-1,-1,-1,-1,-1,-1,-1,-1,-1,-1,-1,-1,-1,-1,-1,-1,-1,-1,-1,-1,-1,-1,-1,-1,-1,-1,-1,-1,-1,-1],"loss_changes":[7.768958E2,2.5378252E2,8.361328E1,7.675657E1,4.7625824E1,2.4168762E1,1.2228954E1,4.646593E1,4.918182E1,3.617894E1,4.6379547E0,1.2173157E1,2.516725E0,9.07788E0,2.9241657E0,1.5200027E1,3.0069376E1,4.7791317E1,1.1398403E1,3.0591095E1,8.308965E0,9.188762E-1,2.5698853E0,6.8447723E0,3.1188965E-1,0E0,1.2176046E0,5.0657578E0,1.0822271E1,4.676523E0,1.3767223E0,0E0,0E0,0E0,0E0,0E0,0E0,0E0,0E0,0E0,0E0,0E0,0E0,0E0,0E0,0E0,0E0,0E0,0E0,0E0,0E0,0E0,0E0,0E0,0E0,0E0,0E0,0E0,0E0,0E0,0E0],"parents":[2147483647,0,0,1,1,2,2,3,3,4,4,5,5,6,6,7,7,8,8,9,9,10,10,11,11,12,12,13,13,14,14,15,15,16,16,17,17,18,18,19,19,20,20,21,21,22,22,23,23,24,24,26,26,27,27,28,28,29,29,30,30],"right_children":[2,4,6,8,10,12,14,16,18,20,22,24,26,28,30,32,34,36,38,40,42,44,46,48,50,-1,52,54,56,58,60,-1,-1,-1,-1,-1,-1,-1,-1,-1,-1,-1,-1,-1,-1,-1,-1,-1,-1,-1,-1,-1,-1,-1,-1,-1,-1,-1,-1,-1,-1],"split_conditions":[7.2E1,5.2E1,1.5E1,6E0,1E0,2.4E1,1.57E2,5.2908E2,1E0,3.902803E4,5.5E1,1.8E2,9.7E1,1E0,1E0,2.9E1,5.9153E2,1E0,2.3471E2,1E0,1E0,1.35183E3,5.6E1,1E0,1E0,-1.2483541E-1,3.2095E2,6.83333E-1,3.7739E2,1E0,9.7E1,-9.659735E-2,-2.2439577E-2,1.0801047E-1,-2.1318855E-2,2.6387665E-2,-1.0758648E-2,-1.8994407E-1,-5.5389423E-2,-5.491745E-2,-2.143663E-2,9.984815E-2,-7.852103E-2,-2.2819577E-2,6.5802544E-2,-7.2929464E-2,-1.00587666E-1,6.341071E-2,9.800645E-2,1.1351278E-1,5.7230204E-2,-7.3782496E-2,1.6688202E-2,5.9657168E-2,-9.722805E-3,2.9755667E-2,-2.7765999E-2,8.4848635E-2,-1.5740436E-2,1.0572457E-1,9.390747E-3],"split_indices":[4,5,5,4,10,1,4,2,10,2,5,4,4,25,20,5,2,8,2,8,20,2,0,20,10,0,2,1,2,21,0,0,0,0,0,0,0,0,0,0,0,0,0,0,0,0,0,0,0,0,0,0,0,0,0,0,0,0,0,0,0],"split_type":[0,0,0,0,0,0,0,0,0,0,0,0,0,0,0,0,0,0,0,0,0,0,0,0,0,0,0,0,0,0,0,0,0,0,0,0,0,0,0,0,0,0,0,0,0,0,0,0,0,0,0,0,0,0,0,0,0,0,0,0,0],"sum_hessian":[4.500673E3,3.5619177E3,9.38755E2,1.9665736E3,1.5953441E3,6.7706464E2,2.6169037E2,2.7854932E2,1.6880243E3,1.3619861E3,2.33358E2,6.690952E2,7.96941E0,2.1613135E2,4.5559017E1,1.6077861E2,1.177707E2,1.6175549E3,7.0469345E1,1.3393306E3,2.2655542E1,2.942767E0,2.3041524E2,2.5981036E2,4.0928488E2,3.081844E0,4.8875656E0,8.115064E1,1.3498071E2,1.763737E1,2.792165E1,1.24395485E2,3.6383125E1,2.1029997E1,9.67407E1,1.1162574E3,5.012975E2,6.296548E0,6.41728E1,9.5477313E2,3.845574E2,2.0430225E1,2.2253165E0,1.5487418E0,1.3940251E0,6.007916E1,1.7033607E2,1.05113174E2,1.5469717E2,4.0520993E2,4.0749273E0,1.2376691E0,3.6498966E0,6.9069176E1,1.2081466E1,8.192888E1,5.3051826E1,1.0252159E1,7.3852096E0,2.6135029E1,1.78662E0],"tree_param":{"num_deleted":"0","num_feature":"26","num_nodes":"61","size_leaf_vector":"1"}},{"base_weights":[5.5563683E-3,-2.919845E-1,5.144546E-1,-9.020888E-2,-5.1086557E-1,8.7510705E-1,1.7927216E-1,-2.052125E-1,3.3855444E-1,-6.0825145E-1,-1.4546554E-1,-4.153394E-1,9.529327E-1,3.4198183E-1,-8.169327E-2,2.3843163E-1,-3.6373872E-1,1.0791438E0,-3.1629452E-1,-4.5845062E-1,-8.1720746E-1,1.9294623E-1,-1.0174886E0,-1.975332E-1,-1.5197699E0,1.0184686E0,-1.6222334E-1,-2.1376286E-1,3.647917E-1,9.957212E-2,-7.4793416E-1,-6.552934E-2,5.6470066E-2,-8.074645E-2,-2.42248E-2,1.2882201E-1,2.306868E-3,-5.8949795E-2,1.261619E-2,-5.36639E-2,9.4662E-2,-1.0374346E-1,-6.701996E-2,1.04003124E-1,8.463398E-4,-1.1457485E-1,2.0487359E-2,-4.6491556E-2,6.855721E-2,-3.2746885E-2,-1.7051093E-1,1.0247213E-1,-1.214942E-1,-1.7725824E-1,3.9921638E-2,4.7989815E-2,2.5097793E-3,2.829338E-3,5.559503E-2,-1.281574E-1,-5.390566E-3],"categories":[],"categories_nodes":[],"categories_segments":[],"categories_sizes":[],"default_left":[0,0,0,0,0,0,0,0,0,0,0,0,0,0,0,0,0,0,0,0,0,0,0,0,0,0,0,0,0,0,0,0,0,0,0,0,0,0,0,0,0,0,0,0,0,0,0,0,0,0,0,0,0,0,0,0,0,0,0,0,0],"id":11,"left_children":[1,3,5,7,9,11,13,15,17,19,21,23,25,27,29,31,33,35,37,39,41,43,45,47,49,51,53,-1,55,57,59,-1,-1,-1,-1,-1,-1,-1,-1,-1,-1,-1,-1,-1,-1,-1,-1,-1,-1,-1,-1,-1,-1,-1,-1,-1,-1,-1,-1,-1,-1],"loss_changes":[6.6941534E2,1.2316684E2,1.9702286E2,7.17089E1,4.7523376E1,7.92796E1,3.5979424E1,8.06987E1,1.4954288E2,3.2683594E1,8.367249E1,1.0614243E1,5.432605E1,3.0287617E1,3.9440697E1,8.853453E1,4.534935E1,3.1897858E1,1.9904716E1,6.8336105E1,1.3540283E1,3.1968834E1,1.2658653E1,9.538992E0,1.0602283E0,1.1021545E1,3.8678608E1,0E0,2.0234856E1,8.3488455E0,2.579554E1,0E0,0E0,0E0,0E0,0E0,0E0,0E0,0E0,0E0,0E0,0E0,0E0,0E0,0E0,0E0,0E0,0E0,0E0,0E0,0E0,0E0,0E0,0E0,0E0,0E0,0E0,0E0,0E0,0E0,0E0],"parents":[2147483647,0,0,1,1,2,2,3,3,4,4,5,5,6,6,7,7,8,8,9,9,10,10,11,11,12,12,13,13,14,14,15,15,16,16,17,17,18,18,19,19,20,20,21,21,22,22,23,23,24,24,25,25,26,26,28,28,29,29,30,30],"right_children":[2,4,6,8,10,12,14,16,18,20,22,24,26,28,30,32,34,36,38,40,42,44,46,48,50,52,54,-1,56,58,60,-1,-1,-1,-1,-1,-1,-1,-1,-1,-1,-1,-1,-1,-1,-1,-1,-1,-1,-1,-1,-1,-1,-1,-1,-1,-1,-1,-1,-1,-1],"split_conditions":[3.3E1,5.9E1,8E0,8.13503E3,1E0,5.1E1,1E0,5E0,5E1,3.65E2,7.3916E2,1E0,2.4E1,8.555E1,1.4043E3,1E0,6E0,2.83333E-1,7.33333E-1,3.42E2,3.91E2,8.556E1,1E0,7E0,3.1E1,1E0,3.2095E2,-2.1376286E-1,3.7E1,1E2,7.31877E3,-6.552934E-2,5.6470066E-2,-8.074645E-2,-2.42248E-2,1.2882201E-1,2.306868E-3,-5.8949795E-2,1.261619E-2,-5.36639E-2,9.4662E-2,-1.0374346E-1,-6.701996E-2,1.04003124E-1,8.463398E-4,-1.1457485E-1,2.0487359E-2,-4.6491556E-2,6.855721E-2,-3.2746885E-2,-1.7051093E-1,1.0247213E-1,-1.214942E-1,-1.7725824E-1,3.9921638E-2,4.7989815E-2,2.5097793E-3,2.829338E-3,5.559503E-2,-1.281574E-1,-5.390566E-3],"split_indices":[4,5,5,2,8,0,8,5,0,5,2,6,1,2,2,5,4,1,1,5,5,2,17,5,0,24,2,0,5,4,2,0,0,0,0,0,0,0,0,0,0,0,0,0,0,0,0,0,0,0,0,0,0,0,0,0,0,0,0,0,0],"split_type":[0,0,0,0,0,0,0,0,0,0,0,0,0,0,0,0,0,0,0,0,0,0,0,0,0,0,0,0,0,0,0,0,0,0,0,0,0,0,0,0,0,0,0,0,0,0,0,0,0,0,0,0,0,0,0,0,0,0,0,0,0],"sum_hessian":[4.418984E3,2.7888403E3,1.6301434E3,1.4518572E3,1.3369832E3,7.8446124E2,8.456821E2,1.1452087E3,3.0664844E2,1.0551117E3,2.8187146E2,4.4372547E1,7.400887E2,5.2071216E2,3.2496997E2,3.0135275E2,8.4385596E2,1.4359941E2,1.6304903E2,6.164044E2,4.387072E2,2.0362723E2,7.824423E1,3.804792E1,6.3246255E0,6.9909094E2,4.0997726E1,3.9012458E0,5.168109E2,2.5613373E2,6.883623E1,8.032257E1,2.210302E2,1.8016939E2,6.636866E2,1.1968498E2,2.3914438E1,1.0059953E2,6.2449482E1,5.844969E2,3.1907578E1,1.7319427E2,2.6551294E2,3.558678E1,1.6804045E2,7.0870605E1,7.37363E0,2.9568775E1,8.479146E0,1.2231135E0,5.101512E0,6.976789E2,1.4120455E0,1.0040806E1,3.095692E1,3.857018E2,1.3110913E2,2.2245235E2,3.3681393E1,3.843608E1,3.0400152E1],"tree_param":{"num_deleted":"0","num_feature":"26","num_nodes":"61","size_leaf_vector":"1"}},{"base_weights":[5.4828273E-3,-1.4783467E-1,8.8334686E-1,9.0938225E-2,-3.7847486E-1,1.0360456E0,5.1801115E-1,-7.908129E-2,3.2881364E-1,-2.7708602E-1,-6.455707E-1,1.0456939E0,-1.4759682E-1,3.8051945E-1,8.923258E-1,-3.3667514E-1,1.8153615E-1,5.574592E-1,1.2220743E-1,-3.0560517E-1,3.9333472E-1,-7.5156504E-1,-1.0496369E-1,1.0519217E0,-3.24818E-2,2.5724217E-2,-6.0189266E-2,4.5686954E-1,-5.713605E-2,-3.0471417E-1,9.70099E-1,4.25481E-4,-8.6482234E-2,2.4618475E-2,-1.2573084E-1,1.0055243E-1,4.043994E-2,-1.0644949E-2,4.9042698E-2,-3.189202E-2,1.2028354E-1,-4.1924074E-2,1.0127002E-1,-9.714879E-2,-6.088076E-2,-4.7377944E-2,4.0473808E-2,9.0438314E-2,1.1057484E-1,4.9081083E-2,-7.3594965E-2,-5.237737E-2,8.478251E-2,2.7718574E-2,-7.097291E-2,1.0034247E-1,9.795156E-3],"categories":[],"categories_nodes":[],"categories_segments":[],"categories_sizes":[],"default_left":[0,0,0,0,0,0,0,0,0,0,0,0,0,0,0,0,0,0,0,0,0,0,0,0,0,0,0,0,0,0,0,0,0,0,0,0,0,0,0,0,0,0,0,0,0,0,0,0,0,0,0,0,0,0,0,0,0],"id":12,"left_children":[1,3,5,7,9,11,13,15,17,19,21,23,25,27,29,31,33,35,37,39,41,43,45,47,-1,-1,-1,49,51,53,55,-1,-1,-1,-1,-1,-1,-1,-1,-1,-1,-1,-1,-1,-1,-1,-1,-1,-1,-1,-1,-1,-1,-1,-1,-1,-1],"loss_changes":[5.8257764E2,2.0296643E2,3.5365234E1,7.328349E1,5.0585907E1,5.3261414E0,9.526329E0,7.103117E1,3.5607513E1,2.6133583E1,2.9433655E1,4.176819E0,9.8943555E-1,4.769205E0,5.020756E0,9.579785E1,4.925072E1,2.4159126E1,3.3562546E1,2.6606308E1,2.8584217E1,1.2922836E1,1.6281614E1,2.554016E0,0E0,0E0,0E0,5.2588577E0,9.723149E0,1.1058314E0,1.2938423E0,0E0,0E0,0E0,0E0,0E0,0E0,0E0,0E0,0E0,0E0,0E0,0E0,0E0,0E0,0E0,0E0,0E0,0E0,0E0,0E0,0E0,0E0,0E0,0E0,0E0,0E0],"parents":[2147483647,0,0,1,1,2,2,3,3,4,4,5,5,6,6,7,7,8,8,9,9,10,10,11,11,12,12,13,13,14,14,15,15,16,16,17,17,18,18,19,19,20,20,21,21,22,22,23,23,27,27,28,28,29,29,30,30],"right_children":[2,4,6,8,10,12,14,16,18,20,22,24,26,28,30,32,34,36,38,40,42,44,46,48,-1,-1,-1,50,52,54,56,-1,-1,-1,-1,-1,-1,-1,-1,-1,-1,-1,-1,-1,-1,-1,-1,-1,-1,-1,-1,-1,-1,-1,-1,-1,-1],"split_conditions":[1E2,3.1E1,8E0,2.8E1,3.65E2,2.4E1,1.75E2,3.2095E2,2.3472E2,3.42E2,1E0,1.44555E3,8.5E1,9.4E1,7.8E1,1.4903E2,1E0,3E0,7.31877E3,5.35245E4,5.2E1,3.91E2,5.7E1,1.85E2,-3.24818E-2,2.5724217E-2,-6.0189266E-2,3.558528E4,2.9E1,1.8E2,1E0,4.25481E-4,-8.6482234E-2,2.4618475E-2,-1.2573084E-1,1.0055243E-1,4.043994E-2,-1.0644949E-2,4.9042698E-2,-3.189202E-2,1.2028354E-1,-4.1924074E-2,1.0127002E-1,-9.714879E-2,-6.088076E-2,-4.7377944E-2,4.0473808E-2,9.0438314E-2,1.1057484E-1,4.9081083E-2,-7.3594965E-2,-5.237737E-2,8.478251E-2,2.7718574E-2,-7.097291E-2,1.0034247E-1,9.795156E-3],"split_indices":[4,5,5,4,5,1,4,2,2,5,8,3,0,0,0,2,6,5,2,2,0,5,0,4,0,0,0,2,5,4,10,0,0,0,0,0,0,0,0,0,0,0,0,0,0,0,0,0,0,0,0,0,0,0,0,0,0],"split_type":[0,0,0,0,0,0,0,0,0,0,0,0,0,0,0,0,0,0,0,0,0,0,0,0,0,0,0,0,0,0,0,0,0,0,0,0,0,0,0,0,0,0,0,0,0,0,0,0,0,0,0,0,0,0,0,0,0],"sum_hessian":[4.3265034E3,3.683941E3,6.425626E2,1.8103555E3,1.8735854E3,4.5186258E2,1.9070003E2,1.056149E3,7.5420636E2,1.3595437E3,5.1404175E2,4.4832465E2,3.5379424E0,1.4094519E2,4.975483E1,5.310089E2,5.251402E2,3.5720215E2,3.970042E2,1.3045917E3,5.495212E1,4.2945102E2,8.4590706E1,4.46528E2,1.7966325E0,2.1001666E0,1.4377759E0,1.199719E2,2.0973299E1,2.8573987E0,4.689743E1,3.2330243E2,2.0770647E2,5.0335297E2,2.178721E1,8.953351E1,2.6766867E2,2.4535475E2,1.5164946E2,1.2939584E3,1.0633204E1,2.3908508E1,3.1043613E1,1.6675455E2,2.6269647E2,4.911906E1,3.5471645E1,1.2411942E2,3.224086E2,1.1722483E2,2.747066E0,1.4115796E1,6.857503E0,1.3021573E0,1.5552415E0,4.50264E1,1.8710263E0],"tree_param":{"num_deleted":"0","num_feature":"26","num_nodes":"57","size_leaf_vector":"1"}},{"base_weights":[5.5153314E-3,-1.344649E-1,8.515722E-1,5.0458036E-2,-3.8273165E-1,9.792558E-1,3.8483304E-1,-1.1035893E-1,2.3164532E-1,-3.1751442E-1,-7.9107267E-1,7.702039E-1,1.0738734E0,2.7762148E-1,8.1479996E-1,-3.1300175E-1,9.321962E-2,4.6788064E-1,6.4299196E-2,-4.4906244E-1,-1.2843964E-1,2.8407547E-1,-8.072124E-1,8.6211824E-1,2.7840722E-1,1.0767776E0,2.2130977E-2,1.3629472E-1,5.963814E-1,-3.2821974E-1,9.670089E-1,-5.960181E-3,-6.94464E-2,5.7424463E-2,-1.0616751E-2,4.9303514E-3,6.622022E-2,-9.135509E-3,3.452925E-2,-1.598744E-2,-8.308977E-2,7.463861E-2,-3.0225245E-2,-1.815078E-2,6.53735E-2,-5.8055848E-2,-8.836553E-2,9.000044E-2,-1.7336478E-2,-8.068123E-2,6.606973E-2,1.08203106E-1,4.7207203E-2,2.4407065E-2,-5.2008953E-2,8.351418E-2,1.6943064E-2,2.6407674E-2,-7.3993176E-2,1.05780974E-1,6.3495554E-2],"categories":[],"categories_nodes":[],"categories_segments":[],"categories_sizes":[],"default_left":[0,0,0,0,0,0,0,0,0,0,0,0,0,0,0,0,0,0,0,0,0,0,0,0,0,0,0,0,0,0,0,0,0,0,0,0,0,0,0,0,0,0,0,0,0,0,0,0,0,0,0,0,0,0,0,0,0,0,0,0,0],"id":13,"left_children":[1,3,5,7,9,11,13,15,17,19,21,23,25,27,29,31,33,35,37,39,41,43,45,47,49,51,-1,53,55,57,59,-1,-1,-1,-1,-1,-1,-1,-1,-1,-1,-1,-1,-1,-1,-1,-1,-1,-1,-1,-1,-1,-1,-1,-1,-1,-1,-1,-1,-1,-1],"loss_changes":[5.034769E2,1.6748773E2,3.5589447E1,6.0966225E1,4.1220764E1,8.533325E0,5.8256207E0,4.5766678E1,3.8861076E1,3.3383102E1,3.9392242E0,6.5850067E0,5.6207275E-1,4.7208986E0,4.786028E0,5.3688488E1,5.3179615E1,3.3134003E1,2.5268362E1,8.737247E1,8.431726E1,7.9015803E-1,3.1409454E0,5.127838E0,1.1009301E1,5.117798E-1,0E0,5.4432526E0,3.1662178E0,1.1135101E0,1.939392E-2,0E0,0E0,0E0,0E0,0E0,0E0,0E0,0E0,0E0,0E0,0E0,0E0,0E0,0E0,0E0,0E0,0E0,0E0,0E0,0E0,0E0,0E0,0E0,0E0,0E0,0E0,0E0,0E0,0E0,0E0],"parents":[2147483647,0,0,1,1,2,2,3,3,4,4,5,5,6,6,7,7,8,8,9,9,10,10,11,11,12,12,13,13,14,14,15,15,16,16,17,17,18,18,19,19,20,20,21,21,22,22,23,23,24,24,25,25,27,27,28,28,29,29,30,30],"right_children":[2,4,6,8,10,12,14,16,18,20,22,24,26,28,30,32,34,36,38,40,42,44,46,48,50,52,-1,54,56,58,60,-1,-1,-1,-1,-1,-1,-1,-1,-1,-1,-1,-1,-1,-1,-1,-1,-1,-1,-1,-1,-1,-1,-1,-1,-1,-1,-1,-1,-1,-1],"split_conditions":[1E2,5.2E1,2.1E1,2.4E1,1E0,1.8E2,1.75E2,3.2095E2,1.4903E2,2.7533E2,5.5E1,1.67099E3,3.983333E0,2.9E1,7.8E1,1.5284E2,5.9153E2,1.4258E2,7.31877E3,1.4903E2,2.8043E2,1.35183E3,5.6E1,9.5E1,1E0,1E0,2.2130977E-2,9.4E1,4.6E1,1.8E2,9.5E1,-5.960181E-3,-6.94464E-2,5.7424463E-2,-1.0616751E-2,4.9303514E-3,6.622022E-2,-9.135509E-3,3.452925E-2,-1.598744E-2,-8.308977E-2,7.463861E-2,-3.0225245E-2,-1.815078E-2,6.53735E-2,-5.8055848E-2,-8.836553E-2,9.000044E-2,-1.7336478E-2,-8.068123E-2,6.606973E-2,1.08203106E-1,4.7207203E-2,2.4407065E-2,-5.2008953E-2,8.351418E-2,1.6943064E-2,2.6407674E-2,-7.3993176E-2,1.05780974E-1,6.3495554E-2],"split_indices":[4,5,5,4,10,4,4,2,2,2,5,2,1,5,0,2,2,2,2,2,2,2,0,0,20,10,0,0,5,4,0,0,0,0,0,0,0,0,0,0,0,0,0,0,0,0,0,0,0,0,0,0,0,0,0,0,0,0,0,0,0],"split_type":[0,0,0,0,0,0,0,0,0,0,0,0,0,0,0,0,0,0,0,0,0,0,0,0,0,0,0,0,0,0,0,0,0,0,0,0,0,0,0,0,0,0,0,0,0,0,0,0,0,0,0,0,0,0,0,0,0,0,0,0,0],"sum_hessian":[4.2492505E3,3.646738E3,6.0251227E2,2.0904504E3,1.5562876E3,4.7222885E2,1.3028343E2,1.1076876E3,9.827629E2,1.3434924E3,2.1279515E2,1.499854E2,3.2224347E2,1.05598335E2,2.468509E1,5.548502E2,5.5283734E2,4.0676062E2,5.7600226E2,7.914613E2,5.520311E2,2.9016364E0,2.0989352E2,1.25733444E2,2.425195E1,3.2088736E2,1.3560869E0,7.4150314E1,3.144802E1,2.7649798E0,2.1920109E1,3.3408112E2,2.2076909E2,1.6145186E2,3.913855E2,1.2936229E2,2.7739832E2,3.7110574E2,2.0489653E2,4.511759E2,3.402854E2,9.095366E1,4.6107748E2,1.5094643E0,1.392172E0,5.5104065E1,1.5478946E2,1.21421715E2,4.311727E0,6.028415E0,1.8223534E1,3.173411E2,3.546268E0,6.423184E1,9.918476E0,1.955588E1,1.1892141E1,1.2808764E0,1.4841033E0,1.5496809E1,6.4233003E0],"tree_param":{"num_deleted":"0","num_feature":"26","num_nodes":"61","size_leaf_vector":"1"}},{"base_weights":[5.52916E-3,-1.2247494E-1,8.209257E-1,2.3562416E-2,-3.920097E-1,9.916964E-1,4.4828528E-1,-1.3690385E-1,1.9018742E-1,-1.20987736E-1,-4.8585162E-1,7.555146E-1,1.0641983E0,3.2073617E-1,8.267551E-1,-2.3959751E-1,2.9417425E-1,4.0840298E-1,3.088731E-2,-2.5655612E-1,6.3164127E-1,-7.931808E-1,-3.27056E-1,8.507902E-1,2.2659177E-1,4.2483184E-1,1.0696111E0,3.543861E-1,-4.9788284E-1,-2.6545236E-1,9.087389E-1,1.8913148E-2,-3.712605E-2,1.0341803E-1,-2.862431E-2,4.6985964E-3,5.8332182E-2,-1.3318128E-2,3.336024E-2,-4.9560007E-2,1.1344313E-2,-4.3522295E-2,7.263132E-2,-8.77475E-2,-4.190391E-2,4.2159896E-2,-5.9679914E-2,8.8435374E-2,-5.879238E-2,6.1679102E-2,-8.5434E-2,7.643566E-2,-5.8856127E-3,1.0728156E-1,2.4928838E-2,4.318741E-2,-4.76382E-3,2.7494872E-2,-7.423564E-2,2.5159677E-2,-6.085227E-2,9.453985E-2,6.1067464E-3],"categories":[],"categories_nodes":[],"categories_segments":[],"categories_sizes":[],"default_left":[0,0,0,0,0,0,0,0,0,0,0,0,0,0,0,0,0,0,0,0,0,0,0,0,0,0,0,0,0,0,0,0,0,0,0,0,0,0,0,0,0,0,0,0,0,0,0,0,0,0,0,0,0,0,0,0,0,0,0,0,0,0,0],"id":14,"left_children":[1,3,5,7,9,11,13,15,17,19,21,23,25,27,29,31,33,35,37,39,41,43,45,47,49,51,53,55,57,59,61,-1,-1,-1,-1,-1,-1,-1,-1,-1,-1,-1,-1,-1,-1,-1,-1,-1,-1,-1,-1,-1,-1,-1,-1,-1,-1,-1,-1,-1,-1,-1,-1],"loss_changes":[4.3563574E2,1.420087E2,3.5593506E1,6.261177E1,3.2185028E1,5.8316956E0,8.414074E0,5.2882652E1,3.991986E1,3.3567726E1,4.5682373E1,4.5676994E0,5.6326294E-1,3.9257278E0,4.242523E0,5.448659E1,9.907091E1,3.0611794E1,3.3076946E1,2.4656662E1,5.3925934E0,9.724487E0,1.2593801E2,4.367756E0,7.1834793E0,7.228066E-1,4.9731445E-1,4.1114006E0,1.2980021E0,8.438257E-1,1.2409554E0,0E0,0E0,0E0,0E0,0E0,0E0,0E0,0E0,0E0,0E0,0E0,0E0,0E0,0E0,0E0,0E0,0E0,0E0,0E0,0E0,0E0,0E0,0E0,0E0,0E0,0E0,0E0,0E0,0E0,0E0,0E0,0E0],"parents":[2147483647,0,0,1,1,2,2,3,3,4,4,5,5,6,6,7,7,8,8,9,9,10,10,11,11,12,12,13,13,14,14,15,15,16,16,17,17,18,18,19,19,20,20,21,21,22,22,23,23,24,24,25,25,26,26,27,27,28,28,29,29,30,30],"right_children":[2,4,6,8,10,12,14,16,18,20,22,24,26,28,30,32,34,36,38,40,42,44,46,48,50,52,54,56,58,60,62,-1,-1,-1,-1,-1,-1,-1,-1,-1,-1,-1,-1,-1,-1,-1,-1,-1,-1,-1,-1,-1,-1,-1,-1,-1,-1,-1,-1,-1,-1,-1,-1],"split_conditions":[1E2,8.1E1,8E0,2.2E1,1.4618E2,1.66E2,1.75E2,8.44201E3,2.0018E2,1E0,2.7858E2,1.67099E3,6.9E1,3.122359E4,7.8E1,5E0,5E1,1.4258E2,7.71892E3,8.85E1,9.8E1,3.33333E-1,7.042E2,3.983333E0,1E0,5.6E1,3.983333E0,9.4E1,1E0,1.8E2,1E0,1.8913148E-2,-3.712605E-2,1.0341803E-1,-2.862431E-2,4.6985964E-3,5.8332182E-2,-1.3318128E-2,3.336024E-2,-4.9560007E-2,1.1344313E-2,-4.3522295E-2,7.263132E-2,-8.77475E-2,-4.190391E-2,4.2159896E-2,-5.9679914E-2,8.8435374E-2,-5.879238E-2,6.1679102E-2,-8.5434E-2,7.643566E-2,-5.8856127E-3,1.0728156E-1,2.4928838E-2,4.318741E-2,-4.76382E-3,2.7494872E-2,-7.423564E-2,2.5159677E-2,-6.085227E-2,9.453985E-2,6.1067464E-3],"split_indices":[4,5,5,4,2,4,4,2,2,8,2,2,0,2,0,5,0,2,2,2,5,1,2,1,25,0,1,0,9,4,10,0,0,0,0,0,0,0,0,0,0,0,0,0,0,0,0,0,0,0,0,0,0,0,0,0,0,0,0,0,0,0,0],"split_type":[0,0,0,0,0,0,0,0,0,0,0,0,0,0,0,0,0,0,0,0,0,0,0,0,0,0,0,0,0,0,0,0,0,0,0,0,0,0,0,0,0,0,0,0,0,0,0,0,0,0,0,0,0,0,0,0,0,0,0,0,0,0,0],"sum_hessian":[4.171828E3,3.6065134E3,5.6531464E2,2.3397305E3,1.2667831E3,3.865214E2,1.7879321E2,1.1919833E3,1.1477472E3,3.264017E2,9.403814E2,9.346636E1,2.9305505E2,1.3510768E2,4.368554E1,9.6301337E2,2.2896986E2,4.836545E2,6.6409265E2,2.771405E2,4.9261208E1,3.1900055E2,6.213808E2,7.868432E1,1.4782043E1,3.1274073E0,2.8992764E2,1.3031796E2,4.789722E0,2.8939397E0,4.07916E1,2.2615552E2,7.3685785E2,1.0030443E2,1.2866542E2,1.5815123E2,3.2550327E2,4.3103564E2,2.3305702E2,1.6815913E2,1.0898137E2,3.7218838E0,4.5539326E1,2.592469E2,5.9753662E1,1.6443604E2,4.569448E2,7.726708E1,1.4172337E0,1.1176789E1,3.6052544E0,1.4966006E0,1.6308068E0,2.8849292E2,1.4347253E0,1.0919664E2,2.1121313E1,1.1210847E0,3.6686373E0,1.260637E0,1.6333027E0,3.899009E1,1.8015094E0],"tree_param":{"num_deleted":"0","num_feature":"26","num_nodes":"63","size_leaf_vector":"1"}},{"base_weights":[5.5140625E-3,-1.1146983E-1,7.9066896E-1,2.1663385E-2,-3.5941204E-1,4.9136123E-1,1.0179482E0,-1.2932274E-1,1.679578E-1,-2.9890093E-1,-7.2480005E-1,6.989227E-1,2.2726937E-1,-2.5285244E-2,1.0334746E0,-2.2333637E-1,2.7117184E-1,3.6771822E-1,2.5866289E-2,-4.1290388E-1,-1.3434935E-1,-4.6804377E-1,-8.217576E-1,4.333502E-1,8.619625E-1,9.2176594E-2,5.374427E-1,4.5403868E-2,-3.6614048E-1,1.0548851E0,7.753213E-1,1.6714929E-2,-3.430433E-2,9.770515E-2,-2.6253406E-2,8.806097E-2,2.5065897E-2,-1.1966933E-2,2.9847203E-2,-1.0015513E-2,-7.366141E-2,4.1278075E-2,-4.688238E-2,-5.1434435E-2,6.6838436E-2,-8.594898E-2,-1.5424663E-2,5.799672E-2,-9.0745084E-2,8.952191E-2,-5.6822676E-2,1.8817753E-2,-4.5630943E-2,7.731397E-2,1.3457703E-2,2.1631483E-2,-7.308267E-2,1.0610973E-1,3.8010046E-2,2.9340139E-2,8.79438E-2],"categories":[],"categories_nodes":[],"categories_segments":[],"categories_sizes":[],"default_left":[0,0,0,0,0,0,0,0,0,0,0,0,0,0,0,0,0,0,0,0,0,0,0,0,0,0,0,0,0,0,0,0,0,0,0,0,0,0,0,0,0,0,0,0,0,0,0,0,0,0,0,0,0,0,0,0,0,0,0,0,0],"id":15,"left_children":[1,3,5,7,9,11,13,15,17,19,21,23,25,27,29,31,33,35,37,39,41,43,45,47,49,51,53,-1,55,57,59,-1,-1,-1,-1,-1,-1,-1,-1,-1,-1,-1,-1,-1,-1,-1,-1,-1,-1,-1,-1,-1,-1,-1,-1,-1,-1,-1,-1,-1,-1],"loss_changes":[3.766297E2,1.1781096E2,3.567105E1,5.133158E1,2.7351349E1,1.2527004E1,4.9063416E0,4.3123077E1,3.3490448E1,2.004338E1,4.007988E0,5.216419E0,4.2800975E0,1.0475953E0,8.2315063E-1,4.338013E1,8.234137E1,2.9227623E1,2.744005E1,6.3953674E1,8.070882E1,3.0109644E0,3.0600586E0,1.057568E1,4.2653008E0,3.9394362E0,2.8530426E0,0E0,9.453356E-1,7.3431396E-1,1.0722113E0,0E0,0E0,0E0,0E0,0E0,0E0,0E0,0E0,0E0,0E0,0E0,0E0,0E0,0E0,0E0,0E0,0E0,0E0,0E0,0E0,0E0,0E0,0E0,0E0,0E0,0E0,0E0,0E0,0E0,0E0],"parents":[2147483647,0,0,1,1,2,2,3,3,4,4,5,5,6,6,7,7,8,8,9,9,10,10,11,11,12,12,13,13,14,14,15,15,16,16,17,17,18,18,19,19,20,20,21,21,22,22,23,23,24,24,25,25,26,26,28,28,29,29,30,30],"right_children":[2,4,6,8,10,12,14,16,18,20,22,24,26,28,30,32,34,36,38,40,42,44,46,48,50,52,54,-1,56,58,60,-1,-1,-1,-1,-1,-1,-1,-1,-1,-1,-1,-1,-1,-1,-1,-1,-1,-1,-1,-1,-1,-1,-1,-1,-1,-1,-1,-1,-1,-1],"split_conditions":[1E2,8.1E1,1.75E2,2.1E1,1E0,2.1E1,7.8E1,8.44201E3,2.0018E2,2.7858E2,1E0,1E0,2.9E1,6.2E1,9.5E1,5E0,5E1,3E0,7.71892E3,1.4618E2,7.3916E2,4.4E1,1E0,3.43135E3,3.558528E4,9.4E1,4.6E1,4.5403868E-2,1.8E2,1E0,1E0,1.6714929E-2,-3.430433E-2,9.770515E-2,-2.6253406E-2,8.806097E-2,2.5065897E-2,-1.1966933E-2,2.9847203E-2,-1.0015513E-2,-7.366141E-2,4.1278075E-2,-4.688238E-2,-5.1434435E-2,6.6838436E-2,-8.594898E-2,-1.5424663E-2,5.799672E-2,-9.0745084E-2,8.952191E-2,-5.6822676E-2,1.8817753E-2,-4.5630943E-2,7.731397E-2,1.3457703E-2,2.1631483E-2,-7.308267E-2,1.0610973E-1,3.8010046E-2,2.9340139E-2,8.79438E-2],"split_indices":[4,5,4,4,10,5,0,2,2,2,25,20,5,0,0,5,0,5,2,2,2,4,14,2,2,0,5,0,4,10,21,0,0,0,0,0,0,0,0,0,0,0,0,0,0,0,0,0,0,0,0,0,0,0,0,0,0,0,0,0,0],"split_type":[0,0,0,0,0,0,0,0,0,0,0,0,0,0,0,0,0,0,0,0,0,0,0,0,0,0,0,0,0,0,0,0,0,0,0,0,0,0,0,0,0,0,0,0,0,0,0,0,0,0,0,0,0,0,0,0,0,0,0,0,0],"sum_hessian":[4.098506E3,3.5677832E3,5.3072266E2,2.3219297E3,1.2458536E3,2.3042891E2,3.002937E2,1.1426995E3,1.1792302E3,1.0704043E3,1.7544926E2,1.2810164E2,1.0232727E2,4.394497E0,2.9589923E2,9.258129E2,2.1688654E2,4.8948962E2,6.8974054E2,6.3143243E2,4.3897186E2,4.9690266E1,1.25759E2,5.0120018E1,7.798163E1,7.218501E1,3.0142256E1,1.6882944E0,2.7062027E0,2.7038773E2,2.5511503E1,2.1713129E2,7.0868164E2,9.302325E1,1.2386329E2,8.974628E1,3.9974335E2,4.500396E2,2.3970096E2,3.2181964E2,3.096128E2,1.6645396E2,2.725179E2,4.8271E1,1.4192634E0,1.18758385E2,7.0006175E0,4.5691128E1,4.42889E0,7.6575066E1,1.4065636E0,6.1991604E1,1.019341E1,1.8436728E1,1.1705527E1,1.1986446E0,1.507558E0,2.6735394E2,3.0337727E0,5.21075E0,2.0300753E1],"tree_param":{"num_deleted":"0","num_feature":"26","num_nodes":"61","size_leaf_vector":"1"}},{"base_weights":[5.485335E-3,-1.0141274E-1,7.607944E-1,-2.2604755E-1,1.21759824E-1,4.5966062E-1,1.0007389E0,-1.7512673E-1,-7.1185106E-1,3.4523773E-1,-1.0686028E-2,7.259915E-1,2.6294023E-1,-2.3408594E-2,1.0172616E0,-3.2741967E-1,-8.835709E-3,-3.8550487E-1,-7.8792465E-1,9.2681026E-1,2.2843793E-1,-1.3451989E-1,2.6920468E-1,7.6599807E-1,-3.0126205E-1,2.2071171E-1,1.0227364E-1,4.3286446E-2,-3.4017333E-1,1.0403779E0,7.4659175E-1,-1.0291369E-2,-7.300221E-2,5.9376173E-3,-7.825802E-2,-7.062094E-2,1.915706E-2,-8.662311E-2,-5.307601E-2,-9.4483994E-2,1.0214969E-1,2.5617192E-2,-1.7699273E-1,5.137251E-3,-8.239833E-2,9.073268E-2,-1.2373286E-2,8.4888004E-2,2.5454013E-2,-6.392567E-2,1.7552992E-2,3.091666E-2,-2.4233997E-2,2.0611992E-2,-6.7386165E-2,1.0470899E-1,3.5923388E-2,8.0353506E-2,7.323173E-4],"categories":[],"categories_nodes":[],"categories_segments":[],"categories_sizes":[],"default_left":[0,0,0,0,0,0,0,0,0,0,0,0,0,0,0,0,0,0,0,0,0,0,0,0,0,0,0,0,0,0,0,0,0,0,0,0,0,0,0,0,0,0,0,0,0,0,0,0,0,0,0,0,0,0,0,0,0,0,0],"id":16,"left_children":[1,3,5,7,9,11,13,15,17,19,21,23,25,27,29,31,33,35,37,39,41,43,45,47,49,51,-1,-1,53,55,57,-1,-1,-1,-1,-1,-1,-1,-1,-1,-1,-1,-1,-1,-1,-1,-1,-1,-1,-1,-1,-1,-1,-1,-1,-1,-1,-1,-1],"loss_changes":[3.255301E2,9.826907E1,3.565805E1,5.5946594E1,3.7484726E1,1.1519844E1,4.7170105E0,5.1987484E1,5.026909E0,3.1798882E1,2.7627607E1,4.1099243E0,3.9494295E0,9.249657E-1,9.312134E-1,9.677769E1,5.18957E1,8.009748E0,3.0274734E0,1.4874596E1,2.2276575E1,7.086077E1,6.14206E1,3.6471825E0,7.9807395E-1,5.1764483E0,0E0,0E0,8.1993365E-1,7.619324E-1,1.0473461E0,0E0,0E0,0E0,0E0,0E0,0E0,0E0,0E0,0E0,0E0,0E0,0E0,0E0,0E0,0E0,0E0,0E0,0E0,0E0,0E0,0E0,0E0,0E0,0E0,0E0,0E0,0E0,0E0],"parents":[2147483647,0,0,1,1,2,2,3,3,4,4,5,5,6,6,7,7,8,8,9,9,10,10,11,11,12,12,13,13,14,14,15,15,16,16,17,17,18,18,19,19,20,20,21,21,22,22,23,23,24,24,25,25,28,28,29,29,30,30],"right_children":[2,4,6,8,10,12,14,16,18,20,22,24,26,28,30,32,34,36,38,40,42,44,46,48,50,52,-1,-1,54,56,58,-1,-1,-1,-1,-1,-1,-1,-1,-1,-1,-1,-1,-1,-1,-1,-1,-1,-1,-1,-1,-1,-1,-1,-1,-1,-1,-1,-1],"split_conditions":[1E2,2.4E1,1.75E2,1E0,1.4903E2,9E0,7.8E1,2.7858E2,5.1E1,3E0,7.31877E3,2.4E1,1E0,6.2E1,9.5E1,1.4903E2,1E0,4.6E1,1.73783E3,4.9E1,1E0,1.37669E3,5.1E1,1.67099E3,2.17471E3,6.15603E3,1.0227364E-1,4.3286446E-2,1.8E2,1E0,1.21782E3,-1.0291369E-2,-7.300221E-2,5.9376173E-3,-7.825802E-2,-7.062094E-2,1.915706E-2,-8.662311E-2,-5.307601E-2,-9.4483994E-2,1.0214969E-1,2.5617192E-2,-1.7699273E-1,5.137251E-3,-8.239833E-2,9.073268E-2,-1.2373286E-2,8.4888004E-2,2.5454013E-2,-6.392567E-2,1.7552992E-2,3.091666E-2,-2.4233997E-2,2.0611992E-2,-6.7386165E-2,1.0470899E-1,3.5923388E-2,8.0353506E-2,7.323173E-4],"split_indices":[4,4,4,10,2,5,0,2,0,5,2,1,23,0,0,2,6,0,2,0,10,2,0,2,2,2,0,0,4,10,2,0,0,0,0,0,0,0,0,0,0,0,0,0,0,0,0,0,0,0,0,0,0,0,0,0,0,0,0],"split_type":[0,0,0,0,0,0,0,0,0,0,0,0,0,0,0,0,0,0,0,0,0,0,0,0,0,0,0,0,0,0,0,0,0,0,0,0,0,0,0,0,0,0,0,0,0,0,0,0,0,0,0,0,0,0,0,0,0,0,0],"sum_hessian":[4.0298215E3,3.530955E3,4.9886655E2,2.2656492E3,1.2653059E3,2.2251845E2,2.763481E2,2.051931E3,2.1371819E2,4.7024603E2,7.9505994E2,9.3390625E1,1.2912782E2,4.38096E0,2.7196716E2,1.0705391E3,9.8139185E2,4.1548393E1,1.721698E2,7.7486786E1,3.9275925E2,5.5155237E2,2.4350752E2,9.0134636E1,3.2559848E0,1.23551476E2,5.5763474E0,1.6449828E0,2.7359772E0,2.4794768E2,2.4019478E1,6.8809015E2,3.8244888E2,9.0273193E2,7.865992E1,2.656266E1,1.4985732E1,1.3016595E2,4.2003845E1,3.2989306E0,7.418786E1,3.882429E2,4.5163546E0,4.3515253E2,1.16399864E2,9.230199E1,1.5120554E2,7.6997444E1,1.3137195E1,1.7059225E0,1.5500624E0,1.04014366E2,1.953711E1,1.1824473E0,1.5535297E0,2.4499623E2,2.9514458E0,2.2220943E1,1.7985361E0],"tree_param":{"num_deleted":"0","num_feature":"26","num_nodes":"59","size_leaf_vector":"1"}},{"base_weights":[5.2828398E-3,-9.2300355E-2,7.3132324E-1,6.5616466E-2,-2.4710871E-1,4.2965537E-1,9.8403215E-1,1.0411569E-1,-6.8462384E-1,-1.6116667E-1,-4.883261E-1,6.360199E-1,1.8627688E-1,-2.1323364E-2,1.0016118E0,-6.0973376E-1,1.4187285E-1,-9.84289E-1,-3.66662E-1,-1.9105516E-1,5.344774E-1,-5.8007985E-1,-5.3071965E-2,3.6203462E-1,8.1043696E-1,5.694533E-2,4.886406E-1,4.1267566E-2,-3.1608748E-1,1.0266047E0,7.176505E-1,-7.828689E-2,1.6887186E-2,-8.388648E-2,1.659278E-2,-1.2438276E-1,-7.62567E-2,-5.0397594E-2,5.6906193E-2,-2.0284751E-2,1.15882695E-1,-2.325739E-2,1.10517375E-1,-6.02397E-2,5.8094677E-2,-5.0751258E-2,2.4046374E-2,7.4408926E-2,-1.6554778E-2,8.465496E-2,-5.465231E-2,1.4705718E-2,-4.38816E-2,7.851722E-3,7.0209496E-2,1.9640945E-2,-6.2231105E-2,1.03386536E-1,3.3933166E-2,2.2520613E-2,8.312405E-2],"categories":[],"categories_nodes":[],"categories_segments":[],"categories_sizes":[],"default_left":[0,0,0,0,0,0,0,0,0,0,0,0,0,0,0,0,0,0,0,0,0,0,0,0,0,0,0,0,0,0,0,0,0,0,0,0,0,0,0,0,0,0,0,0,0,0,0,0,0,0,0,0,0,0,0,0,0,0,0,0,0],"id":17,"left_children":[1,3,5,7,9,11,13,15,17,19,21,23,25,27,29,31,33,35,37,39,41,43,45,47,49,51,53,-1,55,57,59,-1,-1,-1,-1,-1,-1,-1,-1,-1,-1,-1,-1,-1,-1,-1,-1,-1,-1,-1,-1,-1,-1,-1,-1,-1,-1,-1,-1,-1,-1],"loss_changes":[2.8134412E2,8.5594345E1,3.5444366E1,5.0146378E1,3.657109E1,1.0742271E1,4.532501E0,4.4556885E1,7.714718E0,2.7234905E1,1.8496399E1,5.278923E0,3.9076161E0,8.1685513E-1,1.0437317E0,1.1330816E1,3.712738E1,1.5282059E0,5.7752457E0,2.016404E1,2.3905453E1,1.0275055E1,1.10431185E1,9.629831E0,3.9145432E0,3.2640514E0,2.572731E0,0E0,7.125784E-1,7.88208E-1,1.133893E0,0E0,0E0,0E0,0E0,0E0,0E0,0E0,0E0,0E0,0E0,0E0,0E0,0E0,0E0,0E0,0E0,0E0,0E0,0E0,0E0,0E0,0E0,0E0,0E0,0E0,0E0,0E0,0E0,0E0,0E0],"parents":[2147483647,0,0,1,1,2,2,3,3,4,4,5,5,6,6,7,7,8,8,9,9,10,10,11,11,12,12,13,13,14,14,15,15,16,16,17,17,18,18,19,19,20,20,21,21,22,22,23,23,24,24,25,25,26,26,28,28,29,29,30,30],"right_children":[2,4,6,8,10,12,14,16,18,20,22,24,26,28,30,32,34,36,38,40,42,44,46,48,50,52,54,-1,56,58,60,-1,-1,-1,-1,-1,-1,-1,-1,-1,-1,-1,-1,-1,-1,-1,-1,-1,-1,-1,-1,-1,-1,-1,-1,-1,-1,-1,-1,-1,-1],"split_conditions":[1E2,3.1E1,1.75E2,9.2E1,3.65E2,2.1E1,7.8E1,3E0,3.3E1,3.42E2,1E0,1E0,2.9E1,6.2E1,9.5E1,2.8E1,0E0,1E0,1E0,5.35245E4,5.2E1,2.7E1,1E0,8.5E1,3.558528E4,9.4E1,8.6E1,4.1267566E-2,1.8E2,1E0,1E0,-7.828689E-2,1.6887186E-2,-8.388648E-2,1.659278E-2,-1.2438276E-1,-7.62567E-2,-5.0397594E-2,5.6906193E-2,-2.0284751E-2,1.15882695E-1,-2.325739E-2,1.10517375E-1,-6.02397E-2,5.8094677E-2,-5.0751258E-2,2.4046374E-2,7.4408926E-2,-1.6554778E-2,8.465496E-2,-5.465231E-2,1.4705718E-2,-4.38816E-2,7.851722E-3,7.0209496E-2,1.9640945E-2,-6.2231105E-2,1.03386536E-1,3.3933166E-2,2.2520613E-2,8.312405E-2],"split_indices":[4,5,4,0,5,5,0,4,4,5,8,20,5,0,0,5,5,20,9,2,0,4,4,0,2,0,0,0,4,10,21,0,0,0,0,0,0,0,0,0,0,0,0,0,0,0,0,0,0,0,0,0,0,0,0,0,0,0,0,0,0],"split_type":[0,0,0,0,0,0,0,0,0,0,0,0,0,0,0,0,0,0,0,0,0,0,0,0,0,0,0,0,0,0,0,0,0,0,0,0,0,0,0,0,0,0,0,0,0,0,0,0,0,0,0,0,0,0,0,0,0,0,0,0,0],"sum_hessian":[3.9690667E3,3.4995798E3,4.694869E2,1.7326824E3,1.7668976E3,2.1524332E2,2.5424359E2,1.6489275E3,8.375488E1,1.3039783E3,4.6291922E2,1.15605934E2,9.963739E1,4.3656516E0,2.4987793E2,8.207331E1,1.5668541E3,4.2039177E1,4.171571E1,1.250956E3,5.3022243E1,3.820487E2,8.0870514E1,4.616412E1,6.944181E1,7.0619354E1,2.9018034E1,1.603986E0,2.7616653E0,2.272603E2,2.2617641E1,6.7138535E1,1.4934781E1,3.669991E1,1.5301542E3,1.7244099E1,2.4795078E1,3.6779816E1,4.9358916E0,1.240965E3,9.99113E0,2.2872566E1,3.0149675E1,3.7531558E2,6.733128E0,3.1450739E1,4.9419777E1,2.6536816E1,1.9627304E1,6.8008064E1,1.4337481E0,6.0352737E1,1.0266618E1,1.0401265E1,1.861677E1,1.1670663E0,1.5945991E0,2.2438548E2,2.874815E0,4.7983003E0,1.7819342E1],"tree_param":{"num_deleted":"0","num_feature":"26","num_nodes":"61","size_leaf_vector":"1"}},{"base_weights":[5.1314863E-3,-8.373605E-2,7.0185685E-1,-4.0752143E-2,-6.027739E-1,4.0071103E-1,9.676818E-1,-1.8757012E-1,9.767112E-2,-1.6357657E-1,-5.591985E-1,6.6518855E-1,2.1993904E-1,-1.9107211E-2,9.863761E-1,-3.5942283E-1,-6.010253E-3,2.9694954E-1,-2.394116E-2,-6.130762E-1,-9.005586E-2,7.077042E-1,-3.1179944E-1,1.7978324E-1,9.8676495E-2,3.9342318E-2,-2.9373702E-1,1.0133903E0,6.893948E-1,-2.2416582E-2,-8.6525746E-2,5.6353607E-3,-7.062004E-2,8.746847E-2,2.0562313E-2,-3.9637014E-2,7.610265E-3,-5.7090987E-2,-1.1837087E-1,-8.25882E-2,4.108167E-2,7.976999E-2,1.8779606E-2,1.7612586E-2,-6.248908E-2,2.6458522E-2,-2.5060302E-2,1.8715939E-2,-5.7549547E-2,1.0178458E-1,4.7871857E-3,2.0988286E-2,8.05556E-2],"categories":[],"categories_nodes":[],"categories_segments":[],"categories_sizes":[],"default_left":[0,0,0,0,0,0,0,0,0,0,0,0,0,0,0,0,0,0,0,0,0,0,0,0,0,0,0,0,0,0,0,0,0,0,0,0,0,0,0,0,0,0,0,0,0,0,0,0,0,0,0,0,0],"id":18,"left_children":[1,3,5,7,9,11,13,15,17,-1,19,21,23,25,27,29,31,33,35,37,39,41,43,45,-1,-1,47,49,51,-1,-1,-1,-1,-1,-1,-1,-1,-1,-1,-1,-1,-1,-1,-1,-1,-1,-1,-1,-1,-1,-1,-1,-1],"loss_changes":[2.4282231E2,7.7575005E1,3.5126373E1,6.532139E1,1.1056175E1,9.879814E0,4.3526917E0,4.866249E1,4.0105087E1,0E0,6.433182E0,3.7366867E0,3.7042866E0,7.2155756E-1,1.1512756E0,5.4625435E1,3.3201946E1,3.2909008E1,3.8349026E1,4.860344E0,1.0517057E1,3.6599464E0,7.553636E-1,4.4828663E0,0E0,0E0,6.203884E-1,8.5131836E-1,1.076025E0,0E0,0E0,0E0,0E0,0E0,0E0,0E0,0E0,0E0,0E0,0E0,0E0,0E0,0E0,0E0,0E0,0E0,0E0,0E0,0E0,0E0,0E0,0E0,0E0],"parents":[2147483647,0,0,1,1,2,2,3,3,4,4,5,5,6,6,7,7,8,8,10,10,11,11,12,12,13,13,14,14,15,15,16,16,17,17,18,18,19,19,20,20,21,21,22,22,23,23,26,26,27,27,28,28],"right_children":[2,4,6,8,10,12,14,16,18,-1,20,22,24,26,28,30,32,34,36,38,40,42,44,46,-1,-1,48,50,52,-1,-1,-1,-1,-1,-1,-1,-1,-1,-1,-1,-1,-1,-1,-1,-1,-1,-1,-1,-1,-1,-1,-1,-1],"split_conditions":[1E2,1E0,1.75E2,1.6E1,2.3471E2,9E0,7.8E1,2.7533E2,1.4903E2,-1.6357657E-1,3.6E1,2.4E1,1E0,6.2E1,9.5E1,2.3472E2,1E0,3E0,2.7858E2,9.4E1,1E0,1.67099E3,0E0,6.15603E3,9.8676495E-2,3.9342318E-2,1.8E2,3.983333E0,1E0,-2.2416582E-2,-8.6525746E-2,5.6353607E-3,-7.062004E-2,8.746847E-2,2.0562313E-2,-3.9637014E-2,7.610265E-3,-5.7090987E-2,-1.1837087E-1,-8.25882E-2,4.108167E-2,7.976999E-2,1.8779606E-2,1.7612586E-2,-6.248908E-2,2.6458522E-2,-2.5060302E-2,1.8715939E-2,-5.7549547E-2,1.0178458E-1,4.7871857E-3,2.0988286E-2,8.05556E-2],"split_indices":[4,10,4,4,2,5,0,2,2,0,4,1,23,0,0,2,6,5,2,0,20,2,5,2,0,0,4,1,21,0,0,0,0,0,0,0,0,0,0,0,0,0,0,0,0,0,0,0,0,0,0,0,0],"split_type":[0,0,0,0,0,0,0,0,0,0,0,0,0,0,0,0,0,0,0,0,0,0,0,0,0,0,0,0,0,0,0,0,0,0,0,0,0,0,0,0,0,0,0,0,0,0,0,0,0,0,0,0,0],"sum_hessian":[3.9198362E3,3.4771982E3,4.426379E2,3.2122554E3,2.6494308E2,2.0870695E2,2.3393095E2,1.5586865E3,1.6535687E3,9.244951E0,2.5569814E2,8.3647385E1,1.2505957E2,4.348908E0,2.2958205E2,8.0024615E2,7.5844037E2,6.2612885E2,1.0274398E3,2.2908281E2,2.661533E1,8.0423225E1,3.2241573E0,1.20009575E2,5.05E0,1.5652049E0,2.783703E0,2.082287E2,2.1353352E1,6.3254956E2,1.6769664E2,6.9725726E2,6.118312E1,8.4295296E1,5.4183356E2,2.1692819E2,8.1051166E2,2.1518257E2,1.39002285E1,1.051661E1,1.6098719E1,6.810073E1,1.2322494E1,1.431208E0,1.7929493E0,1.00577354E2,1.9432215E1,1.1524621E0,1.631241E0,2.0721829E2,1.0104027E0,4.7114353E0,1.6641916E1],"tree_param":{"num_deleted":"0","num_feature":"26","num_nodes":"53","size_leaf_vector":"1"}},{"base_weights":[4.8575513E-3,-5.543963E-2,9.1051215E-1,2.3300959E-1,-1.3561559E-1,9.874706E-1,5.5875784E-1,-3.8010517E-1,3.7815922E-1,-9.528784E-2,-5.577698E-1,8.1199217E-1,1.0277437E0,6.208462E-1,-5.209408E-2,-7.826791E-2,-8.5616606E-1,-1.621611E-1,5.239995E-1,-1.5629981E-1,1.7782336E-1,-1.5330926E-1,-5.2115E-1,1.4904317E-1,9.085756E-1,1.03378095E-1,8.5218465E-3,2.485439E-1,7.7449125E-1,-7.2598696E-2,1.2552385E-1,-1.6146441E-1,-6.125654E-2,1.7369855E-2,-1.4143144E-1,-4.1896142E-2,5.9958477E-2,-9.171725E-3,-5.864289E-2,9.7807944E-2,-2.924009E-2,-5.5412468E-2,3.146743E-2,-5.551337E-2,6.066158E-2,9.321859E-2,8.708498E-3,5.2388605E-2,-1.48302065E-2,8.54835E-2,-2.5094435E-2],"categories":[],"categories_nodes":[],"categories_segments":[],"categories_sizes":[],"default_left":[0,0,0,0,0,0,0,0,0,0,0,0,0,0,0,0,0,0,0,0,0,0,0,0,0,0,0,0,0,0,0,0,0,0,0,0,0,0,0,0,0,0,0,0,0,0,0,0,0,0,0],"id":19,"left_children":[1,3,5,7,9,11,13,15,17,19,21,23,25,27,-1,29,31,33,35,37,39,-1,41,43,45,-1,-1,47,49,-1,-1,-1,-1,-1,-1,-1,-1,-1,-1,-1,-1,-1,-1,-1,-1,-1,-1,-1,-1,-1,-1],"loss_changes":[2.1133217E2,8.394587E1,5.9877167E0,7.0409134E1,4.829484E1,5.5700684E-1,3.3848639E0,2.172239E1,5.043209E1,4.3242973E1,8.038239E0,2.5230064E0,8.017731E-1,2.3038788E0,0E0,8.201706E1,9.863628E0,5.76769E1,3.612738E1,5.8849255E1,1.7866878E2,0E0,6.788742E0,2.4233305E0,6.178932E-1,0E0,0E0,1.6316452E0,2.720705E0,0E0,0E0,0E0,0E0,0E0,0E0,0E0,0E0,0E0,0E0,0E0,0E0,0E0,0E0,0E0,0E0,0E0,0E0,0E0,0E0,0E0,0E0],"parents":[2147483647,0,0,1,1,2,2,3,3,4,4,5,5,6,6,7,7,8,8,9,9,10,10,11,11,12,12,13,13,15,15,16,16,17,17,18,18,19,19,20,20,22,22,23,23,24,24,27,27,28,28],"right_children":[2,4,6,8,10,12,14,16,18,20,22,24,26,28,-1,30,32,34,36,38,40,-1,42,44,46,-1,-1,48,50,-1,-1,-1,-1,-1,-1,-1,-1,-1,-1,-1,-1,-1,-1,-1,-1,-1,-1,-1,-1,-1,-1],"split_conditions":[1.61E2,8E0,8E0,1E0,1E0,1E0,1E0,1.53544E3,5.3E1,8.44201E3,2.3471E2,1E0,3.983333E0,1E0,-5.209408E-2,6.3084E2,3.66666E-1,1E0,1.3775E2,7.3916E2,5E1,-1.5330926E-1,6.7E1,1.8E2,4.2E2,1.03378095E-1,8.5218465E-3,1E0,9.7E1,-7.2598696E-2,1.2552385E-1,-1.6146441E-1,-6.125654E-2,1.7369855E-2,-1.4143144E-1,-4.1896142E-2,5.9958477E-2,-9.171725E-3,-5.864289E-2,9.7807944E-2,-2.924009E-2,-5.5412468E-2,3.146743E-2,-5.551337E-2,6.066158E-2,9.321859E-2,8.708498E-3,5.2388605E-2,-1.48302065E-2,8.54835E-2,-2.5094435E-2],"split_indices":[4,5,5,5,10,25,10,2,0,2,2,20,1,20,0,2,1,1,2,2,0,0,4,4,4,0,0,21,0,0,0,0,0,0,0,0,0,0,0,0,0,0,0,0,0,0,0,0,0,0,0],"split_type":[0,0,0,0,0,0,0,0,0,0,0,0,0,0,0,0,0,0,0,0,0,0,0,0,0,0,0,0,0,0,0,0,0,0,0,0,0,0,0,0,0,0,0,0,0,0,0,0,0,0,0],"sum_hessian":[3.8680315E3,3.6274592E3,2.4057224E2,7.885576E2,2.8389016E3,1.9590411E2,4.4668125E1,1.5063861E2,6.37919E2,2.5924724E3,2.4642926E2,4.0518482E1,1.5538564E2,4.2641026E1,2.0271013E0,9.2900955E1,5.773765E1,1.3556296E2,5.0235605E2,2.119428E3,4.730443E2,7.438873E0,2.3899039E2,5.47579E0,3.5042694E1,1.5430046E2,1.0851657E0,1.3221418E1,2.9419605E1,6.283562E1,3.006533E1,1.2667556E1,4.50701E1,1.07570946E2,2.7992012E1,3.694221E1,4.6541385E2,1.8438003E3,2.7562775E2,1.7468121E2,2.983631E2,2.3024393E2,8.746465E0,2.072745E0,3.403045E0,3.3932693E1,1.1099986E0,7.6166577E0,5.604761E0,2.7436316E1,1.9832903E0],"tree_param":{"num_deleted":"0","num_feature":"26","num_nodes":"51","size_leaf_vector":"1"}},{"base_weights":[4.782243E-3,-5.028712E-2,8.9117014E-1,-1.6945484E-1,1.3586998E-1,9.7401845E-1,5.283225E-1,-1.0546802E-1,-4.3472964E-1,3.6428824E-1,4.552944E-2,7.8808403E-1,1.0176791E0,5.9027E-1,-4.741197E-2,-1.6250326E-1,1.769753E-1,-5.22249E-1,-3.4669086E-2,9.4128974E-2,7.4752146E-1,2.6038982E-2,9.8946196E-1,1.3781793E-1,8.890238E-1,1.0242203E0,8.110134E-3,2.3002082E-1,7.462589E-1,-9.267085E-3,-6.0288887E-2,8.7930635E-2,-2.2314228E-2,-7.3119365E-2,-4.1322228E-2,-3.7824E-2,3.6589667E-2,3.2245632E-2,-7.354442E-2,8.0947764E-2,-8.0916174E-2,4.3301735E-2,-1.6768363E-3,2.5636856E-2,1.1844581E-1,-5.0143387E-2,5.8383074E-2,9.1394916E-2,8.285242E-3,1.0304852E-1,4.485554E-2,4.9258452E-2,-1.3461704E-2,8.292984E-2,-2.31112E-2],"categories":[],"categories_nodes":[],"categories_segments":[],"categories_sizes":[],"default_left":[0,0,0,0,0,0,0,0,0,0,0,0,0,0,0,0,0,0,0,0,0,0,0,0,0,0,0,0,0,0,0,0,0,0,0,0,0,0,0,0,0,0,0,0,0,0,0,0,0,0,0,0,0,0,0],"id":20,"left_children":[1,3,5,7,9,11,13,15,17,19,21,23,25,27,-1,29,31,33,35,37,39,41,43,45,47,49,-1,51,53,-1,-1,-1,-1,-1,-1,-1,-1,-1,-1,-1,-1,-1,-1,-1,-1,-1,-1,-1,-1,-1,-1,-1,-1,-1,-1],"loss_changes":[1.8648396E2,7.981864E1,6.203171E0,3.7187572E1,2.8965023E1,6.652527E-1,2.995122E0,2.8519257E1,1.4896072E1,4.1125782E1,1.8510983E1,2.4244385E0,7.9263306E-1,2.167489E0,0E0,4.5211834E1,8.383063E1,7.658066E0,1.0808285E1,4.465924E1,1.6508446E1,1.7223394E1,2.606289E0,2.116767E0,5.955372E-1,4.93927E-2,0E0,1.4089148E0,2.513029E0,0E0,0E0,0E0,0E0,0E0,0E0,0E0,0E0,0E0,0E0,0E0,0E0,0E0,0E0,0E0,0E0,0E0,0E0,0E0,0E0,0E0,0E0,0E0,0E0,0E0,0E0],"parents":[2147483647,0,0,1,1,2,2,3,3,4,4,5,5,6,6,7,7,8,8,9,9,10,10,11,11,12,12,13,13,15,15,16,16,17,17,18,18,19,19,20,20,21,21,22,22,23,23,24,24,25,25,27,27,28,28],"right_children":[2,4,6,8,10,12,14,16,18,20,22,24,26,28,-1,30,32,34,36,38,40,42,44,46,48,50,-1,52,54,-1,-1,-1,-1,-1,-1,-1,-1,-1,-1,-1,-1,-1,-1,-1,-1,-1,-1,-1,-1,-1,-1,-1,-1,-1,-1],"split_conditions":[1.61E2,2.4E1,8E0,3.65E2,9E0,1E0,1E0,8.44201E3,1E0,1E0,1E0,1E0,3.983333E0,1E0,-4.741197E-2,1.30712E3,5E1,3.91E2,5.4E1,1.58275E3,2.4E1,3.6E1,8.556E1,1.8E2,4.2E2,9.5E1,8.110134E-3,1E0,9.7E1,-9.267085E-3,-6.0288887E-2,8.7930635E-2,-2.2314228E-2,-7.3119365E-2,-4.1322228E-2,-3.7824E-2,3.6589667E-2,3.2245632E-2,-7.354442E-2,8.0947764E-2,-8.0916174E-2,4.3301735E-2,-1.6768363E-3,2.5636856E-2,1.1844581E-1,-5.0143387E-2,5.8383074E-2,9.1394916E-2,8.285242E-3,1.0304852E-1,4.485554E-2,4.9258452E-2,-1.3461704E-2,8.292984E-2,-2.31112E-2],"split_indices":[4,4,5,5,5,25,10,2,8,20,23,20,1,20,0,2,0,5,0,2,1,0,2,4,4,0,0,21,0,0,0,0,0,0,0,0,0,0,0,0,0,0,0,0,0,0,0,0,0,0,0,0,0,0,0],"split_type":[0,0,0,0,0,0,0,0,0,0,0,0,0,0,0,0,0,0,0,0,0,0,0,0,0,0,0,0,0,0,0,0,0,0,0,0,0,0,0,0,0,0,0,0,0,0,0,0,0,0,0,0,0,0,0],"sum_hessian":[3.8184714E3,3.596003E3,2.2246861E2,2.1925442E3,1.4034587E3,1.797437E2,4.2724915E1,1.7675835E3,4.249606E2,3.968997E2,1.006559E3,3.7803364E1,1.4194034E2,4.062556E1,2.0993512E0,1.470968E3,2.966155E2,3.4843063E2,7.652997E1,2.3352351E2,1.6337617E2,9.872027E2,1.9356323E1,5.3974805E0,3.2405884E1,1.4086295E2,1.0773927E0,1.3023347E1,2.7602215E1,1.2706847E3,2.0028334E2,1.0721759E2,1.893979E2,1.1751401E2,2.3091664E2,4.122577E1,3.5304195E1,1.8360135E2,4.992217E1,1.575843E2,5.791876E0,9.308725E1,8.941154E2,4.553197E0,1.4803126E1,2.1671436E0,3.230337E0,3.130432E1,1.101564E0,1.385649E2,2.2980509E0,7.3674226E0,5.6559243E0,2.5580355E1,2.0218608E0],"tree_param":{"num_deleted":"0","num_feature":"26","num_nodes":"55","size_leaf_vector":"1"}},{"base_weights":[4.7468417E-3,-4.5533802E-2,8.7174886E-1,-1.5383546E-1,1.2377037E-1,9.6072274E-1,4.9880886E-1,-9.526496E-2,-4.0118897E-1,2.9149362E-1,1.7527843E-2,7.640695E-1,1.0080268E0,1.1373543E-1,6.7481625E-1,-1.4665876E-1,1.6248935E-1,-4.8387605E-1,-3.136276E-2,8.528595E-1,1.9906099E-1,-6.304274E-3,1.0077885E0,1.2782569E-1,8.692905E-1,1.015117E0,7.718291E-3,4.626815E-1,-2.9514304E-1,1.098654E-1,9.349881E-1,-8.346375E-3,-5.496363E-2,8.256396E-2,-2.0117296E-2,-6.9184594E-2,-3.786239E-2,1.0518838E-2,-9.868639E-2,-9.771397E-2,9.480997E-2,2.1905817E-2,-1.5227377E-1,4.381245E-2,-4.1582887E-3,1.1733206E-1,3.5715997E-2,-4.667161E-2,5.6531053E-2,8.955681E-2,7.882431E-3,1.0219201E-1,4.291673E-2,6.197058E-2,9.223142E-3,-6.5263934E-2,3.2873515E-2,-4.8433673E-2,4.9937934E-2,9.763772E-2,2.4172498E-2],"categories":[],"categories_nodes":[],"categories_segments":[],"categories_sizes":[],"default_left":[0,0,0,0,0,0,0,0,0,0,0,0,0,0,0,0,0,0,0,0,0,0,0,0,0,0,0,0,0,0,0,0,0,0,0,0,0,0,0,0,0,0,0,0,0,0,0,0,0,0,0,0,0,0,0,0,0,0,0,0,0],"id":21,"left_children":[1,3,5,7,9,11,13,15,17,19,21,23,25,27,29,31,33,35,37,39,41,43,45,47,49,51,-1,53,55,57,59,-1,-1,-1,-1,-1,-1,-1,-1,-1,-1,-1,-1,-1,-1,-1,-1,-1,-1,-1,-1,-1,-1,-1,-1,-1,-1,-1,-1,-1,-1],"loss_changes":[1.6456009E2,6.54426E1,6.3867493E0,3.1494137E1,2.4809217E1,7.7386475E-1,2.7655373E0,2.3353264E1,1.2717972E1,2.784795E1,2.0151089E1,2.320137E0,7.840271E-1,2.1851008E0,4.097892E0,3.7360527E1,7.088654E1,7.185524E0,1.0170669E1,1.4178341E1,1.6341484E1,1.3102577E1,1.7420826E0,1.9092673E0,5.7312965E-1,7.803345E-2,0E0,4.161229E-1,1.8252466E0,2.5897834E0,3.2162666E-1,0E0,0E0,0E0,0E0,0E0,0E0,0E0,0E0,0E0,0E0,0E0,0E0,0E0,0E0,0E0,0E0,0E0,0E0,0E0,0E0,0E0,0E0,0E0,0E0,0E0,0E0,0E0,0E0,0E0,0E0],"parents":[2147483647,0,0,1,1,2,2,3,3,4,4,5,5,6,6,7,7,8,8,9,9,10,10,11,11,12,12,13,13,14,14,15,15,16,16,17,17,18,18,19,19,20,20,21,21,22,22,23,23,24,24,25,25,27,27,28,28,29,29,30,30],"right_children":[2,4,6,8,10,12,14,16,18,20,22,24,26,28,30,32,34,36,38,40,42,44,46,48,50,52,-1,54,56,58,60,-1,-1,-1,-1,-1,-1,-1,-1,-1,-1,-1,-1,-1,-1,-1,-1,-1,-1,-1,-1,-1,-1,-1,-1,-1,-1,-1,-1,-1,-1],"split_conditions":[1.61E2,2.4E1,8E0,3.65E2,1.4903E2,1E0,1E0,8.44201E3,1E0,3E0,1E0,1E0,3.983333E0,1E0,1.4618E2,1.30712E3,5E1,3.91E2,2.66666E-1,4.9E1,1E0,3.3E1,8.9E1,9.4E1,4.2E2,9.5E1,7.718291E-3,1.8E2,2.9E1,1.5E1,9.7E1,-8.346375E-3,-5.496363E-2,8.256396E-2,-2.0117296E-2,-6.9184594E-2,-3.786239E-2,1.0518838E-2,-9.868639E-2,-9.771397E-2,9.480997E-2,2.1905817E-2,-1.5227377E-1,4.381245E-2,-4.1582887E-3,1.1733206E-1,3.5715997E-2,-4.667161E-2,5.6531053E-2,8.955681E-2,7.882431E-3,1.0219201E-1,4.291673E-2,6.197058E-2,9.223142E-3,-6.5263934E-2,3.2873515E-2,-4.8433673E-2,4.9937934E-2,9.763772E-2,2.4172498E-2],"split_indices":[4,4,5,5,2,25,20,2,8,5,23,20,1,21,2,2,0,5,1,0,10,0,0,0,4,0,0,4,5,5,0,0,0,0,0,0,0,0,0,0,0,0,0,0,0,0,0,0,0,0,0,0,0,0,0,0,0,0,0,0,0],"split_type":[0,0,0,0,0,0,0,0,0,0,0,0,0,0,0,0,0,0,0,0,0,0,0,0,0,0,0,0,0,0,0,0,0,0,0,0,0,0,0,0,0,0,0,0,0,0,0,0,0,0,0,0,0,0,0,0,0,0,0,0,0],"sum_hessian":[3.772973E3,3.5670537E3,2.0591913E2,2.175504E3,1.3915499E3,1.649825E2,4.0936634E1,1.7601139E3,4.1538992E2,5.389597E2,8.525902E2,3.531655E1,1.2966594E2,1.3357958E1,2.7578676E1,1.4678661E3,2.9224783E2,3.3923428E2,7.6155624E1,7.503389E1,4.6392584E2,8.3352386E2,1.9066374E1,5.3260617E0,2.9990488E1,1.285959E2,1.0700374E0,7.1361876E0,6.22177E0,9.144375E0,1.8434301E1,1.2699236E3,1.9794255E2,1.0305439E2,1.8919344E2,1.1212029E2,2.2711401E2,6.74117E1,8.743926E0,3.2537997E0,7.178009E1,4.5946234E2,4.463477E0,6.0459194E1,7.7306464E2,1.4558941E1,4.5074334E0,2.2294383E0,3.0966232E0,2.8896898E1,1.0935897E0,1.2638449E2,2.2114089E0,4.5392647E0,2.596923E0,3.925989E0,2.2957807E0,3.5244303E0,5.6199446E0,1.701037E1,1.4239302E0],"tree_param":{"num_deleted":"0","num_feature":"26","num_nodes":"61","size_leaf_vector":"1"}},{"base_weights":[4.656474E-3,-4.127492E-2,8.521706E-1,2.005822E-1,-1.0714482E-1,9.4740826E-1,4.7187245E-1,-3.2732886E-1,3.2989576E-1,-2.1951514E-1,2.5587233E-3,7.398998E-1,9.986168E-1,5.3542197E-1,-4.6400285E-1,-7.294663E-1,-7.023424E-2,-1.4363028E-1,4.6448463E-1,-6.7427224E-1,-1.831334E-1,3.3635914E-2,-4.2644197E-1,1.1881132E-1,8.492909E-1,1.0063046E0,7.3453295E-3,3.9990458E-1,9.722236E-2,-8.497572E-2,1.3085052E-2,3.975328E-2,-1.5419984E-1,1.0368748E-1,-6.9662385E-2,1.5623182E-2,-1.23625234E-1,7.093265E-2,1.8882584E-2,-1.0921159E-1,-5.5170726E-2,-2.4407668E-2,6.03322E-3,1.6628215E-2,-4.88932E-3,-1.1198868E-1,-3.2268483E-2,4.5747887E-2,-6.1599065E-2,8.769476E-2,7.4991444E-3,1.0136979E-1,4.1042414E-2,9.7881695E-3,5.7283875E-2],"categories":[],"categories_nodes":[],"categories_segments":[],"categories_sizes":[],"default_left":[0,0,0,0,0,0,0,0,0,0,0,0,0,0,0,0,0,0,0,0,0,0,0,0,0,0,0,0,0,0,0,0,0,0,0,0,0,0,0,0,0,0,0,0,0,0,0,0,0,0,0,0,0,0,0],"id":22,"left_children":[1,3,5,7,9,11,13,15,17,19,21,23,25,27,29,31,33,35,37,39,41,43,45,47,49,51,-1,53,-1,-1,-1,-1,-1,-1,-1,-1,-1,-1,-1,-1,-1,-1,-1,-1,-1,-1,-1,-1,-1,-1,-1,-1,-1,-1,-1],"loss_changes":[1.4531372E2,5.6435467E1,6.5035706E0,5.1876587E1,3.4317467E1,8.814087E-1,2.6527739E0,1.5426878E1,3.8919006E1,2.262883E1,1.8807266E1,2.2118797E0,7.7560425E-1,1.8795309E0,8.239821E-1,5.39804E1,6.482144E1,4.4649124E1,3.192102E1,4.595394E0,1.8928116E1,1.4407036E1,6.494589E0,1.8397102E0,5.505581E-1,1.0546112E-1,0E0,1.5601978E0,0E0,0E0,0E0,0E0,0E0,0E0,0E0,0E0,0E0,0E0,0E0,0E0,0E0,0E0,0E0,0E0,0E0,0E0,0E0,0E0,0E0,0E0,0E0,0E0,0E0,0E0,0E0],"parents":[2147483647,0,0,1,1,2,2,3,3,4,4,5,5,6,6,7,7,8,8,9,9,10,10,11,11,12,12,13,13,14,14,15,15,16,16,17,17,18,18,19,19,20,20,21,21,22,22,23,23,24,24,25,25,27,27],"right_children":[2,4,6,8,10,12,14,16,18,20,22,24,26,28,30,32,34,36,38,40,42,44,46,48,50,52,-1,54,-1,-1,-1,-1,-1,-1,-1,-1,-1,-1,-1,-1,-1,-1,-1,-1,-1,-1,-1,-1,-1,-1,-1,-1,-1,-1,-1],"split_conditions":[1.61E2,8E0,8E0,1E0,1.6E1,1E0,1E0,3.2095E2,5.3E1,1.7E1,1E0,1E0,3.983333E0,5.7398E2,1E0,1.05E0,1.46299E3,1E0,4E0,8.85E1,3.43135E3,1.4903E2,7.6961E2,1E0,4.2E2,9.5E1,7.3453295E-3,1E0,9.722236E-2,-8.497572E-2,1.3085052E-2,3.975328E-2,-1.5419984E-1,1.0368748E-1,-6.9662385E-2,1.5623182E-2,-1.23625234E-1,7.093265E-2,1.8882584E-2,-1.0921159E-1,-5.5170726E-2,-2.4407668E-2,6.03322E-3,1.6628215E-2,-4.88932E-3,-1.1198868E-1,-3.2268483E-2,4.5747887E-2,-6.1599065E-2,8.769476E-2,7.4991444E-3,1.0136979E-1,4.1042414E-2,9.7881695E-3,5.7283875E-2],"split_indices":[4,5,5,5,4,25,10,2,0,5,10,20,1,2,17,1,2,1,5,2,2,2,2,6,4,0,0,20,0,0,0,0,0,0,0,0,0,0,0,0,0,0,0,0,0,0,0,0,0,0,0,0,0,0,0],"split_type":[0,0,0,0,0,0,0,0,0,0,0,0,0,0,0,0,0,0,0,0,0,0,0,0,0,0,0,0,0,0,0,0,0,0,0,0,0,0,0,0,0,0,0,0,0,0,0,0,0,0,0,0,0,0,0],"sum_hessian":[3.7310286E3,3.5401216E3,1.9090712E2,7.57336E2,2.7827856E3,1.5148073E2,3.9426388E1,1.4870988E2,6.086261E2,1.3741897E3,1.4085958E3,3.304079E1,1.1843993E2,3.7320103E1,2.1062868E0,5.727898E1,9.14309E1,1.3468713E2,4.7393896E2,1.0049612E2,1.2736936E3,1.3143077E3,9.4288025E1,5.2603393E0,2.778045E1,1.1737686E2,1.0630747E0,2.9945166E1,7.374936E0,1.0177648E0,1.088522E0,2.4209976E1,3.3069E1,3.2801224E1,5.8629677E1,1.0635563E2,2.833151E1,2.5016644E2,2.237725E2,2.0998466E1,7.949765E1,1.0186955E3,2.5499815E2,5.0370505E2,8.106027E2,1.0997122E1,8.329091E1,3.8591042E0,1.401235E0,2.66944E1,1.0860493E0,1.1524581E2,2.1310468E0,1.147337E1,1.8471796E1],"tree_param":{"num_deleted":"0","num_feature":"26","num_nodes":"55","size_leaf_vector":"1"}},{"base_weights":[4.459034E-3,-3.7473958E-2,8.3202845E-1,-3.5831884E-1,5.598578E-3,9.338413E-1,4.44465E-1,-6.80844E-1,-2.9516977E-1,2.2829242E-1,-6.0154647E-2,7.149237E-1,9.893506E-1,5.0752836E-1,-4.341951E-1,-9.416309E-1,1.6813247E-2,-2.6146954E-1,-8.3858097E-1,-2.6935083E-1,3.502158E-1,-2.9523673E-2,-4.0661678E-1,1.0648084E-1,8.2895756E-1,9.9768776E-1,6.9903284E-3,3.74255E-1,9.5481776E-2,-8.620221E-2,1.6652035E-2,-6.465515E-2,-1.1819314E-1,3.3050414E-2,-9.298711E-2,-2.1754572E-2,-6.510777E-2,4.799425E-2,-9.6002296E-2,-6.687287E-2,-1.412364E-3,-1.0827762E-2,4.791343E-2,-8.031995E-3,1.929214E-2,-8.3601266E-2,-2.8876705E-2,-4.5307677E-2,5.422448E-2,3.4597677E-3,8.586223E-2,1.0057258E-1,3.9232384E-2,8.941852E-3,5.4401346E-2],"categories":[],"categories_nodes":[],"categories_segments":[],"categories_sizes":[],"default_left":[0,0,0,0,0,0,0,0,0,0,0,0,0,0,0,0,0,0,0,0,0,0,0,0,0,0,0,0,0,0,0,0,0,0,0,0,0,0,0,0,0,0,0,0,0,0,0,0,0,0,0,0,0,0,0],"id":23,"left_children":[1,3,5,7,9,11,13,15,17,19,21,23,25,27,29,31,33,35,37,39,41,43,45,47,49,51,-1,53,-1,-1,-1,-1,-1,-1,-1,-1,-1,-1,-1,-1,-1,-1,-1,-1,-1,-1,-1,-1,-1,-1,-1,-1,-1,-1,-1],"loss_changes":[1.281527E2,4.857661E1,6.6123886E0,8.272446E0,4.5404675E1,9.9559784E-1,2.3792014E0,1.2270304E1,6.1844177E0,4.2981575E1,2.5394577E1,2.1285744E0,7.6721954E-1,1.8371E0,9.525728E-1,2.7135124E0,6.041513E0,5.5178604E0,3.657834E0,1.4226758E1,3.363598E1,2.4881401E1,9.595379E0,1.7551168E0,6.008873E-1,1.3156891E-1,0E0,1.4022632E0,0E0,0E0,0E0,0E0,0E0,0E0,0E0,0E0,0E0,0E0,0E0,0E0,0E0,0E0,0E0,0E0,0E0,0E0,0E0,0E0,0E0,0E0,0E0,0E0,0E0,0E0,0E0],"parents":[2147483647,0,0,1,1,2,2,3,3,4,4,5,5,6,6,7,7,8,8,9,9,10,10,11,11,12,12,13,13,14,14,15,15,16,16,17,17,18,18,19,19,20,20,21,21,22,22,23,23,24,24,25,25,27,27],"right_children":[2,4,6,8,10,12,14,16,18,20,22,24,26,28,30,32,34,36,38,40,42,44,46,48,50,52,-1,54,-1,-1,-1,-1,-1,-1,-1,-1,-1,-1,-1,-1,-1,-1,-1,-1,-1,-1,-1,-1,-1,-1,-1,-1,-1,-1,-1],"split_conditions":[1.61E2,3E0,8E0,2.8E1,8E0,1E0,1E0,5.16666E-1,1E0,1E0,1E0,1E0,3.983333E0,5.7398E2,8.9E1,2.1836E2,1E0,1E0,2.9E1,3.2095E2,5.3E1,8.13503E3,8.1377E2,9.4E1,1.66E2,9.5E1,6.9903284E-3,1E0,9.5481776E-2,-8.620221E-2,1.6652035E-2,-6.465515E-2,-1.1819314E-1,3.3050414E-2,-9.298711E-2,-2.1754572E-2,-6.510777E-2,4.799425E-2,-9.6002296E-2,-6.687287E-2,-1.412364E-3,-1.0827762E-2,4.791343E-2,-8.031995E-3,1.929214E-2,-8.3601266E-2,-2.8876705E-2,-4.5307677E-2,5.422448E-2,3.4597677E-3,8.586223E-2,1.0057258E-1,3.9232384E-2,8.941852E-3,5.4401346E-2],"split_indices":[4,4,5,5,5,25,10,1,13,5,10,20,1,2,0,2,6,10,0,2,0,2,2,0,4,0,0,20,0,0,0,0,0,0,0,0,0,0,0,0,0,0,0,0,0,0,0,0,0,0,0,0,0,0,0],"split_type":[0,0,0,0,0,0,0,0,0,0,0,0,0,0,0,0,0,0,0,0,0,0,0,0,0,0,0,0,0,0,0,0,0,0,0,0,0,0,0,0,0,0,0,0,0,0,0,0,0,0,0,0,0,0,0],"sum_hessian":[3.691001E3,3.5139058E3,1.7709511E2,4.150326E2,3.0988733E3,1.3913489E2,3.7960224E1,6.635452E1,3.4867807E2,7.0584314E2,2.39303E3,3.0950754E1,1.08184135E2,3.5812283E1,2.1479428E0,4.8045307E1,1.830922E1,3.2971182E2,1.8966265E1,1.3866362E2,5.671795E2,2.1996433E3,1.9338689E2,5.1904087E0,2.5760345E1,1.07127655E2,1.0564818E0,2.9006334E1,6.805947E0,1.0004407E0,1.1475021E0,2.3221195E1,2.482411E1,1.424118E1,4.0680385E0,2.9770712E2,3.200468E1,1.3505878E0,1.7615677E1,5.3432564E1,8.523106E1,1.2451322E2,4.4266626E2,1.791244E3,4.0839923E2,4.033368E1,1.530532E2,2.2550302E0,2.9353783E0,1.005352E0,2.4754993E1,1.0507117E2,2.0564828E0,1.1401901E1,1.7604433E1],"tree_param":{"num_deleted":"0","num_feature":"26","num_nodes":"55","size_leaf_vector":"1"}},{"base_weights":[4.179413E-3,-3.159529E-2,8.6934114E-1,-1.11497E-1,1.3028556E-1,-1.05136484E-1,8.984183E-1,-6.514019E-2,-3.3300412E-1,4.7207526E-3,2.9959053E-1,2.9060796E-2,-3.3147708E-1,6.755089E-1,9.7603554E-1,-8.1343606E-2,5.890529E-1,-6.0131246E-1,-2.305952E-1,-6.091833E-2,4.7161573E-1,5.877924E-1,-3.7762836E-2,1.612974E-2,-6.037109E-2,7.286145E-1,-4.7307298E-2,9.847735E-1,7.282658E-3,-5.7479343E-3,-4.5278378E-2,-2.3166407E-2,1.0935392E-1,1.265322E-1,-7.070879E-2,-1.45003665E-2,-5.523328E-2,6.0064713E-3,-6.3600995E-2,9.408938E-2,-3.1981878E-2,6.5538764E-2,-8.177875E-3,1.8599384E-2,-2.7549533E-2,3.8442224E-2,7.884278E-2,-8.834853E-2,6.4901166E-2,3.2480594E-2,9.932237E-2],"categories":[],"categories_nodes":[],"categories_segments":[],"categories_sizes":[],"default_left":[0,0,0,0,0,0,0,0,0,0,0,0,0,0,0,0,0,0,0,0,0,0,0,0,0,0,0,0,0,0,0,0,0,0,0,0,0,0,0,0,0,0,0,0,0,0,0,0,0,0,0],"id":24,"left_children":[1,3,5,7,9,11,13,15,17,19,21,-1,23,25,27,29,31,33,35,37,39,41,43,-1,-1,45,47,49,-1,-1,-1,-1,-1,-1,-1,-1,-1,-1,-1,-1,-1,-1,-1,-1,-1,-1,-1,-1,-1,-1,-1],"loss_changes":[1.1322193E2,4.5453224E1,4.2103424E0,2.4135448E1,2.4688269E1,5.535069E-1,1.7828674E0,2.0683075E1,1.104171E1,2.0496017E1,4.8104298E1,0E0,5.9561986E-1,1.5585136E0,7.368393E-1,1.6820372E1,1.9784641E1,2.2965248E1,8.074344E0,4.083896E1,3.0916464E1,1.212706E1,1.2221072E1,0E0,0E0,4.5960808E-1,2.7023296E0,2.4282074E-1,0E0,0E0,0E0,0E0,0E0,0E0,0E0,0E0,0E0,0E0,0E0,0E0,0E0,0E0,0E0,0E0,0E0,0E0,0E0,0E0,0E0,0E0,0E0],"parents":[2147483647,0,0,1,1,2,2,3,3,4,4,5,5,6,6,7,7,8,8,9,9,10,10,12,12,13,13,14,14,15,15,16,16,17,17,18,18,19,19,20,20,21,21,22,22,25,25,26,26,27,27],"right_children":[2,4,6,8,10,12,14,16,18,20,22,-1,24,26,28,30,32,34,36,38,40,42,44,-1,-1,46,48,50,-1,-1,-1,-1,-1,-1,-1,-1,-1,-1,-1,-1,-1,-1,-1,-1,-1,-1,-1,-1,-1,-1,-1],"split_conditions":[1.75E2,2.9E1,7.8E1,3.65E2,1E0,6.2E1,1.4903E2,3.42E2,3.91E2,9.71677E3,2.6E1,2.9060796E-2,1.8E2,9.7E1,3.983333E0,9.1E1,5E1,1.4618E2,4.16666E-1,1.49836E3,5.1E1,9.3E1,3.3949E2,1.612974E-2,-6.037109E-2,1E0,3.38E2,1.8E2,7.282658E-3,-5.7479343E-3,-4.5278378E-2,-2.3166407E-2,1.0935392E-1,1.265322E-1,-7.070879E-2,-1.45003665E-2,-5.523328E-2,6.0064713E-3,-6.3600995E-2,9.408938E-2,-3.1981878E-2,6.5538764E-2,-8.177875E-3,1.8599384E-2,-2.7549533E-2,3.8442224E-2,7.884278E-2,-8.834853E-2,6.4901166E-2,3.2480594E-2,9.932237E-2],"split_indices":[4,4,0,5,20,0,2,5,5,2,5,0,4,0,1,0,0,2,1,2,0,0,2,0,0,20,4,4,0,0,0,0,0,0,0,0,0,0,0,0,0,0,0,0,0,0,0,0,0,0,0],"split_type":[0,0,0,0,0,0,0,0,0,0,0,0,0,0,0,0,0,0,0,0,0,0,0,0,0,0,0,0,0,0,0,0,0,0,0,0,0,0,0,0,0,0,0,0,0,0,0,0,0,0,0],"sum_hessian":[3.6562266E3,3.511969E3,1.4425752E2,2.3515793E3,1.1603895E3,4.103959E0,1.4015356E2,1.9456827E3,4.0589673E2,6.668494E2,4.9354013E2,1.3898824E0,2.7140765E0,3.870358E1,1.0144998E2,1.8995103E3,4.6172466E1,1.107813E2,2.9511542E2,5.8541724E2,8.1432175E1,2.6575906E2,2.2778107E2,1.1108375E0,1.603239E0,3.6047157E1,2.656419E0,1.0038848E2,1.0615019E0,1.7859231E3,1.1358711E2,1.7783081E1,2.8389385E1,5.3530426E0,1.0542826E2,2.3424905E2,6.0866352E1,4.844072E2,1.0101005E2,5.100193E1,3.0430246E1,2.4140926E2,2.4349812E1,1.1745173E2,1.1032934E2,6.436382E0,2.9610777E1,1.0848625E0,1.5715566E0,1.7676917E0,9.862079E1],"tree_param":{"num_deleted":"0","num_feature":"26","num_nodes":"51","size_leaf_vector":"1"}},{"base_weights":[4.0538535E-3,-2.855251E-2,8.516389E-1,2.5728112E-1,-7.051983E-2,-9.738089E-2,8.8226336E-1,-2.6808572E-1,5.110931E-1,-1.8825501E-1,2.7387228E-2,2.8166065E-2,-3.244055E-1,9.7852814E-1,6.7483795E-1,-3.3713855E-2,-6.1169434E-1,-7.925026E-1,5.8499116E-1,-4.22951E-1,-1.2786381E-1,7.88072E-3,7.7223015E-1,9.599858E-3,-6.829804E-2,1.0000284E0,2.0001215E-1,7.0998764E-1,-3.1922635E-2,-5.8050424E-2,1.13900185E-1,-1.1789622E-1,-3.3871576E-2,-1.5578358E-1,2.7154282E-2,1.130167E-2,7.1920246E-2,-4.696123E-2,3.3028517E-2,2.890326E-2,-1.9125896E-2,3.2077977E-3,-3.5478964E-2,-2.9282033E-2,9.7342186E-2,1.0108224E-1,3.6121707E-2,-4.401789E-2,6.3714124E-2,1.632587E-2,7.6941706E-2],"categories":[],"categories_nodes":[],"categories_segments":[],"categories_sizes":[],"default_left":[0,0,0,0,0,0,0,0,0,0,0,0,0,0,0,0,0,0,0,0,0,0,0,0,0,0,0,0,0,0,0,0,0,0,0,0,0,0,0,0,0,0,0,0,0,0,0,0,0,0,0],"id":25,"left_children":[1,3,5,7,9,11,13,15,17,19,21,-1,23,25,27,29,31,33,35,37,39,41,43,-1,-1,45,47,49,-1,-1,-1,-1,-1,-1,-1,-1,-1,-1,-1,-1,-1,-1,-1,-1,-1,-1,-1,-1,-1,-1,-1],"loss_changes":[1.0021163E2,4.1905045E1,3.9898453E0,5.9777122E1,3.511177E1,5.3021115E-1,1.9399643E0,1.1765175E1,2.9548012E1,1.954647E1,2.4165953E1,0E0,6.164164E-1,1.2515869E0,1.7815742E0,5.712952E1,8.781275E0,1.3958662E1,1.8053764E1,1.0087048E1,2.9162033E1,1.4247464E1,9.380642E0,0E0,0E0,2.1507263E-1,1.2825009E0,1.2810116E0,0E0,0E0,0E0,0E0,0E0,0E0,0E0,0E0,0E0,0E0,0E0,0E0,0E0,0E0,0E0,0E0,0E0,0E0,0E0,0E0,0E0,0E0,0E0],"parents":[2147483647,0,0,1,1,2,2,3,3,4,4,5,5,6,6,7,7,8,8,9,9,10,10,12,12,13,13,14,14,15,15,16,16,17,17,18,18,19,19,20,20,21,21,22,22,25,25,26,26,27,27],"right_children":[2,4,6,8,10,12,14,16,18,20,22,-1,24,26,28,30,32,34,36,38,40,42,44,-1,-1,46,48,50,-1,-1,-1,-1,-1,-1,-1,-1,-1,-1,-1,-1,-1,-1,-1,-1,-1,-1,-1,-1,-1,-1,-1],"split_conditions":[1.75E2,4E0,7.8E1,1E0,1.5E1,1.5E1,7E0,1.46299E3,1.3775E2,2.8E1,1E0,2.8166065E-2,1E0,9.5E1,4.2E2,6.3084E2,5E-1,8.2E1,5.3E1,1.85E0,3.1E1,1E0,1E0,9.599858E-3,-6.829804E-2,3.95E0,2.183333E0,1E0,-3.1922635E-2,-5.8050424E-2,1.13900185E-1,-1.1789622E-1,-3.3871576E-2,-1.5578358E-1,2.7154282E-2,1.130167E-2,7.1920246E-2,-4.696123E-2,3.3028517E-2,2.890326E-2,-1.9125896E-2,3.2077977E-3,-3.5478964E-2,-2.9282033E-2,9.7342186E-2,1.0108224E-1,3.6121707E-2,-4.401789E-2,6.3714124E-2,1.632587E-2,7.6941706E-2],"split_indices":[4,5,0,5,4,5,5,2,2,5,23,0,21,0,4,2,1,0,0,1,5,10,20,0,0,1,1,20,0,0,0,0,0,0,0,0,0,0,0,0,0,0,0,0,0,0,0,0,0,0,0],"split_type":[0,0,0,0,0,0,0,0,0,0,0,0,0,0,0,0,0,0,0,0,0,0,0,0,0,0,0,0,0,0,0,0,0,0,0,0,0,0,0,0,0,0,0,0,0,0,0,0,0,0,0],"sum_hessian":[3.6241594E3,3.4908345E3,1.3332513E2,4.4626364E2,3.0445708E3,4.0997095E0,1.2922542E2,1.4534889E2,3.0091473E2,1.3818936E3,1.6626772E3,1.44555E0,2.6541598E0,8.572399E1,4.3501427E1,8.706255E1,5.828634E1,1.5621424E1,2.8529333E2,2.8158337E2,1.1003102E3,1.6212299E3,4.144741E1,1.5588244E0,1.0953354E0,8.3143295E1,2.5806992E0,4.229178E1,1.2096475E0,5.9721703E1,2.7340849E1,1.785778E1,4.042856E1,8.816171E0,6.805253E0,6.3572624E1,2.217207E2,2.6551205E2,1.6071327E1,1.4476347E2,9.555467E2,1.520682E3,1.0054788E2,6.513166E0,3.4934242E1,8.1189095E1,1.9541962E0,1.0443033E0,1.5363959E0,4.5137753E0,3.7778004E1],"tree_param":{"num_deleted":"0","num_feature":"26","num_nodes":"51","size_leaf_vector":"1"}},{"base_weights":[3.9689313E-3,-2.5771001E-2,8.334196E-1,2.386759E-1,-6.370397E-2,-9.340322E-2,8.657655E-1,-2.4454708E-1,4.7750428E-1,-2.4290097E-1,-9.90868E-3,2.6840318E-2,-3.0560577E-1,6.1812E-1,9.561007E-1,-2.9767584E-2,-5.5465406E-1,-6.988211E-1,5.487034E-1,-6.021199E-1,-1.706898E-1,-2.688326E-2,7.1946365E-1,1.6434696E-2,-5.7299107E-2,6.766541E-1,-1.04834765E-1,9.6634E-1,5.264818E-3,-4.9756672E-2,1.14642404E-1,-1.0692757E-1,-3.0666465E-2,-1.3372539E-1,2.511527E-2,1.0245222E-2,6.8113886E-2,1.52620515E-2,-6.706219E-2,2.167345E-2,-2.0250998E-2,1.0123042E-4,-3.7917696E-2,-3.2494222E-3,9.699387E-2,3.360626E-2,7.407145E-2,-8.7297074E-2,6.128314E-2,9.768472E-2,2.7560232E-2],"categories":[],"categories_nodes":[],"categories_segments":[],"categories_sizes":[],"default_left":[0,0,0,0,0,0,0,0,0,0,0,0,0,0,0,0,0,0,0,0,0,0,0,0,0,0,0,0,0,0,0,0,0,0,0,0,0,0,0,0,0,0,0,0,0,0,0,0,0,0,0],"id":26,"left_children":[1,3,5,7,9,11,13,15,17,19,21,-1,23,25,27,29,31,33,35,37,39,41,43,-1,-1,45,47,49,-1,-1,-1,-1,-1,-1,-1,-1,-1,-1,-1,-1,-1,-1,-1,-1,-1,-1,-1,-1,-1,-1,-1],"loss_changes":[8.8610374E1,3.480297E1,3.8083878E0,5.0348602E1,2.9242138E1,4.732507E-1,2.0989685E0,9.616411E0,2.4808258E1,1.8065334E1,2.8919575E1,0E0,5.5652475E-1,1.5506582E0,7.4723816E-1,4.8166946E1,7.217554E0,1.0697039E1,1.6214752E1,6.1428413E0,7.2503624E0,2.2428102E1,1.0037598E1,0E0,0E0,4.5978355E-1,2.4560966E0,3.4950256E-1,0E0,0E0,0E0,0E0,0E0,0E0,0E0,0E0,0E0,0E0,0E0,0E0,0E0,0E0,0E0,0E0,0E0,0E0,0E0,0E0,0E0,0E0,0E0],